Cufon.registerFont({"w":1228,"face":{"font-family":"Aller","font-weight":400,"font-stretch":"normal","units-per-em":"2048","panose-1":"2 0 5 3 3 0 0 2 0 4","ascent":"1638","descent":"-410","bbox":"-82 -1917 2056.25 2083","underline-thickness":"102","underline-position":"-102","unicode-range":"U+0020-U+2122"},"glyphs":{" ":{"w":485},"!":{"d":"182,0v-11,-71,-10,-158,0,-229v72,-12,158,-11,230,0v11,72,11,157,0,229v-72,11,-158,11,-230,0xm190,-1473v69,-11,151,-10,220,0r-13,1031v-59,11,-137,11,-192,0","w":593},"\"":{"d":"532,911r0,562v15,3,32,5,49,6v17,1,33,2,49,2v17,0,33,-1,50,-2v16,-1,32,-3,47,-6r0,-562v-31,-4,-64,-6,-97,-6v-35,0,-68,2,-98,6xm131,911r0,562v15,3,32,5,49,6v17,1,33,2,49,2v17,0,33,-1,50,-2v16,-1,32,-3,47,-6r0,-562v-31,-4,-64,-6,-97,-6v-35,0,-68,2,-98,6","w":860},"#":{"d":"1358,-590v11,46,10,116,0,162r-252,0r-31,369v-61,8,-121,8,-180,0r29,-369r-349,0r-28,369v-66,8,-122,8,-189,0r31,-369r-254,0v-9,-51,-8,-114,2,-162r266,0r29,-338r-254,0v-11,-42,-11,-116,0,-159r266,0r29,-326v56,-8,123,-9,182,-2r-26,328r348,0r29,-326v56,-8,125,-9,184,-2r-29,328r240,0v9,51,7,110,0,159r-252,0r-29,338r238,0xm588,-590r348,0r29,-338r-351,0","w":1505},"$":{"d":"705,242v-43,11,-101,10,-144,0r0,-219v-157,10,-291,-21,-407,-62v6,-64,26,-127,47,-180v100,31,185,57,321,57v112,0,195,-22,250,-66v55,-44,82,-103,82,-180v0,-185,-156,-213,-283,-270v-183,-81,-382,-139,-378,-405v3,-228,151,-356,368,-383r0,-199v41,-11,103,-10,144,0r0,190v110,5,230,25,311,56v-7,57,-22,114,-45,170v-81,-28,-176,-52,-293,-51v-158,1,-268,52,-268,200v0,117,74,163,158,199r192,82v174,73,324,152,323,397v-1,249,-156,386,-378,428r0,236"},"%":{"d":"475,-752v149,0,197,-123,197,-286v0,-163,-45,-285,-197,-285v-148,0,-197,123,-197,285v0,166,43,286,197,286xm114,-870v-31,-103,-31,-232,0,-335v49,-157,159,-266,361,-268v135,-1,226,55,290,129v87,102,121,310,71,474v-32,106,-97,185,-191,231v-92,46,-248,45,-341,0v-95,-46,-158,-124,-190,-231xm1663,-125v149,0,197,-123,197,-286v0,-163,-45,-285,-197,-285v-148,0,-197,123,-197,285v0,166,43,286,197,286xm1302,-242v-31,-103,-31,-233,0,-336v49,-157,159,-266,361,-268v135,-1,226,56,290,130v87,102,121,310,71,474v-32,106,-97,184,-191,230v-92,46,-248,45,-341,0v-95,-46,-158,-123,-190,-230xm1470,-1450v63,-11,144,-10,207,0r-989,1448v-66,10,-143,11,-207,0","w":2150},"&":{"d":"1542,-944v11,48,10,117,0,166r-266,0r0,303v-2,267,-146,408,-358,469v-135,38,-314,43,-456,6v-135,-34,-239,-104,-298,-215v-47,-88,-60,-225,-26,-336v39,-130,125,-234,243,-285v-59,-26,-107,-65,-149,-112v-69,-77,-78,-251,-25,-352v68,-130,211,-197,405,-197v91,0,179,12,256,41v-3,67,-15,109,-45,153v-90,-28,-221,-46,-312,-13v-77,28,-132,82,-132,179v0,134,93,193,246,193r446,0r189,-258r16,0r0,258r266,0xm344,-451v1,199,134,291,344,291v260,0,392,-118,391,-370r0,-244r-415,0v-157,1,-252,85,-298,199v-15,39,-22,80,-22,124","w":1558},"'":{"d":"131,-1473v59,-10,136,-11,195,0r0,562v-61,8,-135,8,-195,0r0,-562","w":456},"(":{"d":"551,342v-58,10,-144,12,-201,0v-152,-239,-248,-570,-248,-965v0,-313,63,-581,157,-797v29,-66,60,-122,91,-169v56,-12,144,-10,201,0v-138,241,-244,568,-244,966v0,401,103,718,244,965","w":653},")":{"d":"102,-1589v58,-10,144,-12,201,0v149,242,248,570,248,966v0,397,-98,722,-248,965v-56,12,-144,9,-201,0v138,-240,244,-567,244,-965v0,-404,-103,-718,-244,-966","w":653},"*":{"d":"78,-1126v5,-42,19,-82,41,-121r256,67v-8,55,-24,105,-47,152xm303,-686v-40,-22,-72,-43,-102,-76r143,-223v47,23,91,56,129,92xm578,-1206v-50,8,-111,9,-160,0r16,-267v43,-8,83,-8,127,0xm520,-893v38,-36,81,-69,129,-92r144,223v-30,33,-63,54,-103,76xm618,-1180r256,-67v22,38,36,78,41,121r-249,98v-24,-47,-40,-97,-48,-152","w":993},"+":{"d":"707,-258v-56,10,-130,11,-183,0r0,-371r-340,0v-11,-53,-11,-129,0,-182r340,0r0,-373v57,-11,125,-10,183,0r0,373r337,0v11,56,13,127,0,182r-337,0r0,371"},",":{"d":"41,231r121,-456v67,-12,130,-16,203,0r-129,456v-60,9,-136,10,-195,0","w":436},"-":{"d":"104,-481v-11,-54,-10,-132,0,-187r531,0v10,54,11,133,0,187r-531,0","w":739},".":{"d":"133,0v-12,-70,-13,-157,0,-229v71,-11,156,-12,227,0v13,72,15,157,0,229v-71,11,-156,10,-227,0","w":493},"\/":{"d":"72,0r497,-1473v62,-11,136,-10,199,0r-500,1473v-61,10,-135,11,-196,0","w":839},"0":{"d":"132,-384v-42,-165,-43,-386,1,-548v43,-162,127,-287,259,-358v125,-67,327,-67,452,0v198,106,291,331,291,633v0,299,-95,526,-293,631v-126,66,-329,68,-453,0v-130,-72,-215,-195,-257,-358xm315,-657v0,169,27,295,80,377v53,82,127,124,221,124v94,0,167,-42,219,-124v52,-82,78,-208,78,-377v0,-169,-25,-296,-77,-379v-52,-83,-125,-125,-220,-125v-94,0,-168,42,-221,125v-53,83,-80,210,-80,379"},"1":{"d":"203,-1071r545,-260r30,0r0,1157r293,0v8,63,8,113,0,174r-801,0v-11,-54,-11,-120,0,-174r308,0r0,-881r-297,135v-40,-48,-55,-87,-78,-151"},"2":{"d":"1040,-180v11,55,12,126,0,180r-911,0r-12,-27r401,-469r99,-119v54,-66,102,-135,133,-215v13,-34,20,-69,20,-106v0,-153,-107,-223,-268,-223v-130,0,-209,36,-297,74v-19,-53,-46,-108,-51,-172v102,-42,211,-86,362,-84v211,2,371,66,436,213v62,139,35,308,-42,438v-93,158,-280,358,-412,510r542,0"},"3":{"d":"168,-1139v-11,-55,-10,-126,0,-182r829,0r15,25r-373,567v201,-15,331,92,383,241v41,117,22,261,-24,358v-86,181,-268,280,-529,280v-147,0,-261,-24,-371,-68v9,-65,36,-122,64,-172v148,69,434,91,566,-10v65,-49,110,-124,110,-238v0,-173,-130,-250,-303,-250v-60,0,-116,3,-166,17r-17,-29r342,-539r-526,0"},"4":{"d":"981,121v-63,9,-136,8,-199,0r0,-281r-698,0r-16,-22r600,-1176v67,7,129,35,178,68r-477,950r413,0r0,-389v62,-11,138,-10,199,0r0,389r188,0v11,55,13,127,0,180r-188,0r0,281"},"5":{"d":"451,-774v109,-20,234,-16,327,16v112,38,192,116,236,222v49,117,41,302,-12,409v-89,182,-277,277,-543,277v-115,0,-244,-22,-330,-60v9,-66,30,-119,57,-172v86,30,156,49,273,49v226,0,372,-87,372,-307v0,-194,-124,-278,-327,-278v-83,0,-173,15,-234,36r-20,-18v4,-120,8,-240,13,-360v5,-120,10,-240,16,-361r696,0v9,56,8,127,0,182r-512,0"},"6":{"d":"346,-748v62,-103,179,-194,350,-190v204,5,336,105,400,259v48,117,49,310,-5,425v-55,118,-149,201,-271,247v-121,45,-277,41,-393,-2v-203,-76,-294,-271,-292,-558v2,-403,158,-685,431,-829v98,-53,214,-84,349,-95v19,55,22,114,9,172v-342,36,-520,252,-578,571xm356,-457v-2,194,93,305,275,305v139,0,223,-72,266,-176v30,-73,28,-199,1,-272v-38,-102,-119,-166,-253,-166v-138,0,-226,74,-267,178v-15,38,-22,82,-22,131"},"7":{"d":"143,-1139v-11,-54,-10,-127,0,-182r973,0r8,14r-622,1459v-78,-17,-136,-42,-191,-86r525,-1205r-693,0"},"8":{"d":"152,-192v-50,-85,-57,-239,-16,-336v52,-122,156,-202,276,-252v-65,-31,-120,-76,-167,-130v-74,-85,-93,-243,-35,-354v69,-130,209,-209,404,-209v195,0,336,79,405,209v58,110,38,271,-35,355v-47,54,-102,98,-169,129v159,70,303,175,305,403v1,151,-68,247,-158,311v-166,119,-530,120,-696,0v-47,-34,-84,-76,-114,-126xm614,-150v177,0,289,-81,289,-245v0,-133,-84,-202,-175,-253v-35,-18,-73,-34,-114,-46v-117,35,-219,91,-266,194v-15,32,-22,67,-22,105v1,163,113,245,288,245xm614,-1307v-146,0,-239,70,-239,203v0,153,120,206,239,246v95,-29,180,-72,220,-155v13,-27,20,-57,20,-91v-2,-133,-94,-203,-240,-203"},"9":{"d":"893,-565v-59,104,-178,196,-348,192v-205,-4,-335,-104,-399,-259v-48,-117,-49,-311,5,-425v77,-164,226,-280,453,-280v359,0,502,226,502,592v0,403,-158,684,-430,828v-98,53,-215,84,-350,95v-19,-43,-21,-119,-9,-174v260,-24,430,-162,520,-358v29,-66,48,-136,56,-211xm610,-1161v-174,0,-292,120,-288,311v4,191,88,303,274,303v138,0,225,-74,266,-178v15,-38,23,-81,23,-129v2,-194,-93,-307,-275,-307"},":":{"d":"123,-712v0,19,1,39,3,59v2,19,4,38,7,57v19,3,38,5,57,7v18,1,37,2,56,2v19,0,39,-1,58,-3v19,-1,37,-3,56,-6v3,-19,5,-39,8,-58v2,-19,3,-37,3,-56v0,-19,-1,-39,-3,-58v-2,-19,-5,-38,-8,-57v-19,-3,-38,-5,-57,-6v-18,-1,-36,-2,-55,-2v-19,0,-39,1,-58,2v-19,1,-38,3,-57,6v-3,19,-5,38,-7,57v-2,18,-3,37,-3,56xm123,113v0,19,1,39,3,59v2,19,4,38,7,57v19,3,38,5,57,7v18,1,37,2,56,2v19,0,39,-1,58,-3v19,-1,37,-3,56,-6v3,-19,5,-39,8,-58v2,-19,3,-37,3,-56v0,-19,-1,-39,-3,-58v-2,-19,-5,-38,-8,-57v-19,-3,-38,-5,-57,-6v-18,-1,-36,-2,-55,-2v-19,0,-39,1,-58,2v-19,1,-38,3,-57,6v-3,19,-5,38,-7,57v-2,18,-3,37,-3,56","w":493},";":{"d":"59,-231r121,456v17,3,34,5,51,8v17,2,32,3,47,3v31,0,66,-4,105,-11r-129,-456v-17,-3,-34,-5,-51,-6v-17,-1,-33,-1,-48,-1v-17,0,-33,1,-49,2v-16,1,-32,2,-47,5xm160,-712v0,19,1,39,3,59v2,19,4,38,7,57v19,3,38,5,57,7v18,1,37,2,56,2v19,0,39,-1,58,-3v19,-1,37,-3,56,-6v3,-19,5,-39,8,-58v2,-19,3,-37,3,-56v0,-19,-1,-39,-3,-58v-2,-19,-5,-38,-8,-57v-19,-3,-38,-5,-57,-6v-18,-1,-36,-2,-55,-2v-19,0,-39,1,-58,2v-19,1,-38,3,-57,6v-3,19,-5,38,-7,57v-2,18,-3,37,-3,56","w":532},"<":{"d":"195,-596v-17,-66,-18,-151,0,-217r852,-346v14,73,13,129,2,194r-672,260r672,250v11,62,12,146,-2,205"},"=":{"d":"180,-424v-9,-53,-8,-132,0,-186r869,0v10,54,11,132,0,186r-869,0xm180,-815v-9,-53,-8,-132,0,-186r869,0v10,54,11,132,0,186r-869,0"},">":{"d":"182,-250v-10,-62,-11,-135,0,-194r670,-261r-670,-249v-15,-60,-11,-146,0,-205r854,346v12,67,20,150,0,217"},"?":{"d":"403,-1296v-122,0,-177,17,-264,49v-23,-51,-43,-105,-51,-170v104,-36,205,-58,342,-58v161,0,283,37,366,110v83,73,124,170,124,290v0,140,-68,237,-140,304v-58,54,-143,96,-213,122r0,211v-59,10,-135,11,-194,0r0,-332v135,-36,253,-80,309,-190v15,-32,23,-70,23,-113v-3,-155,-129,-223,-302,-223xm354,-2v-10,-70,-11,-156,0,-227v72,-13,157,-14,230,0v11,71,10,156,0,227v-69,11,-161,11,-230,0","w":999},"@":{"d":"1247,100v17,42,36,91,45,144v-167,80,-493,92,-699,24v-193,-64,-339,-189,-417,-372v-87,-204,-76,-482,4,-706v95,-266,283,-470,542,-589v207,-95,537,-131,787,-54v184,57,321,175,397,344v69,154,76,376,20,554v-52,163,-152,297,-286,379v-125,77,-348,83,-456,-2v-77,45,-175,76,-295,76v-192,0,-318,-129,-318,-326v0,-196,77,-355,175,-460v94,-101,235,-180,415,-181v115,-1,212,19,303,47r-147,731v23,20,67,27,108,27v131,-2,208,-90,263,-180v56,-92,93,-224,94,-361v1,-354,-226,-530,-586,-530v-295,0,-513,117,-658,274v-135,147,-233,358,-233,615v0,308,133,492,361,569v176,60,427,37,581,-23xm1245,-893v-84,-21,-175,-15,-245,21v-135,68,-224,207,-226,405v-2,133,56,203,184,203v76,0,115,-13,175,-39","w":2076},"A":{"d":"1229,0v-66,10,-155,11,-221,0r-103,-340r-559,0r-100,340v-65,10,-149,11,-213,0r479,-1473v73,-11,166,-10,240,0xm401,-522r449,0r-225,-752","w":1263},"B":{"d":"760,2v-175,38,-397,20,-578,-2r0,-1473v149,-23,392,-34,543,-1v125,28,219,86,271,184v40,75,51,204,18,296v-36,102,-111,175,-215,206v143,18,247,95,297,214v44,103,37,277,-17,368v-65,110,-175,177,-319,208xm907,-416v-1,-203,-143,-269,-346,-270r-172,0r0,524v141,15,321,14,412,-46v63,-42,107,-103,106,-208xm532,-1331v-49,0,-103,2,-143,8r0,465r150,0v176,0,285,-73,286,-242v0,-164,-123,-231,-293,-231","w":1218},"C":{"d":"1178,-45v-176,81,-468,97,-659,17v-255,-106,-398,-343,-398,-699v0,-360,144,-603,397,-716v177,-79,466,-61,635,1v-6,69,-27,115,-49,172v-84,-28,-168,-45,-285,-45v-149,0,-264,50,-347,151v-83,101,-124,247,-124,437v0,273,95,455,286,533v143,57,362,38,486,-21v30,59,49,115,58,170","w":1265},"D":{"d":"535,25v-117,1,-256,-11,-353,-25r0,-1473v98,-11,247,-22,361,-22v508,0,769,264,770,762v0,515,-263,757,-778,758xm557,-1309v-52,0,-122,-1,-166,9r0,1128v120,16,275,13,380,-18v223,-65,322,-250,321,-549v-1,-370,-173,-567,-535,-570","w":1431},"E":{"d":"1006,-182v7,54,9,128,0,182r-826,0r0,-1473r809,0v7,54,9,129,0,183r-600,0r0,422r479,0v12,54,11,128,0,182r-479,0r0,504r617,0","w":1097},"F":{"d":"389,0v-63,11,-146,11,-209,0r0,-1473r770,0v11,54,10,129,0,183r-561,0r0,432r469,0v10,57,11,128,0,184r-469,0r0,674","w":1032},"G":{"d":"1239,-43v-110,48,-263,68,-416,68v-351,0,-561,-170,-654,-437v-64,-182,-63,-452,1,-634v64,-185,187,-321,357,-397v178,-80,469,-63,638,3v-6,69,-26,115,-49,172v-129,-46,-348,-73,-488,-8v-185,86,-282,277,-284,549v-1,190,49,329,138,427v80,88,194,137,352,138v78,1,142,-9,198,-24r0,-576v63,-10,145,-11,207,0r0,719","w":1394},"H":{"d":"389,0v-63,11,-146,11,-209,0r0,-1473v64,-10,146,-11,209,0r0,607r627,0r0,-607v63,-11,146,-10,209,0r0,1473v-62,11,-147,11,-209,0r0,-682r-627,0r0,682","w":1404},"I":{"d":"389,0v-63,11,-146,11,-209,0r0,-1473v64,-10,146,-11,209,0r0,1473","w":569},"J":{"d":"412,4v-103,32,-254,23,-355,-4v1,-65,15,-124,33,-178v38,8,77,20,123,20v140,0,219,-58,219,-204r0,-928r-258,0v-11,-54,-11,-129,0,-183r467,0r0,1063v1,221,-65,363,-229,414","w":811},"K":{"d":"389,0v-63,10,-147,11,-209,0r0,-1473v64,-10,146,-11,209,0r0,1473xm1210,0v-77,10,-161,11,-237,0r-522,-748r473,-725v73,-11,153,-10,227,0r-467,707","w":1230},"L":{"d":"965,-184v9,57,7,128,0,184r-785,0r0,-1473v62,-11,144,-10,207,0r0,1289r578,0","w":1013},"M":{"d":"348,0v-59,11,-134,11,-192,0r65,-1473v69,-11,167,-11,236,0r381,922r383,-922v64,-11,160,-10,225,0r70,1473v-62,10,-142,11,-203,0r-47,-1145r-361,840v-53,8,-109,8,-162,0r-348,-846","w":1671},"N":{"d":"377,0v-59,10,-139,11,-197,0r0,-1473v59,-10,134,-11,193,0r641,1106r0,-1106v61,-10,138,-11,198,0r0,1473v-58,10,-134,11,-192,0r-643,-1100r0,1100","w":1392},"O":{"d":"163,-430v-51,-181,-50,-429,0,-610v51,-184,152,-321,308,-400v149,-75,404,-75,553,0v231,115,344,363,344,705v0,342,-112,589,-344,703v-150,74,-404,73,-553,0v-156,-77,-258,-215,-308,-398xm372,-976v-32,139,-32,344,0,482v31,135,94,241,198,298v95,52,259,53,354,0v160,-89,223,-286,223,-539v0,-252,-63,-449,-223,-538v-95,-53,-258,-52,-353,0v-105,57,-167,161,-199,297","w":1492},"P":{"d":"389,0v-64,7,-145,9,-209,0r0,-1475v172,-19,389,-37,556,1v139,32,241,107,300,224v60,118,54,349,-3,466v-99,203,-341,282,-644,252r0,532xm864,-1020v0,-214,-130,-298,-342,-297v-51,0,-95,2,-133,6r0,596v51,6,68,8,129,8v214,-1,346,-91,346,-313","w":1159},"Q":{"d":"157,-430v-50,-181,-50,-429,0,-610v51,-184,152,-321,308,-400v150,-75,404,-74,553,0v232,115,344,363,344,705v0,342,-112,589,-344,703v-149,73,-405,74,-554,0v-156,-77,-256,-215,-307,-398xm366,-976v-32,139,-33,345,0,482v31,135,94,241,198,298v96,52,259,53,354,0v161,-88,223,-286,223,-539v0,-252,-63,-449,-223,-538v-95,-53,-259,-52,-354,0v-105,57,-166,161,-198,297xm877,227v6,-78,14,-113,36,-176r469,82v-3,68,-11,129,-34,182","w":1482},"R":{"d":"393,0v-64,6,-145,10,-209,0r0,-1475r155,-15v24,-2,49,-4,75,-5v183,-9,361,14,475,90v105,70,180,181,180,358v0,112,-43,198,-94,263v-55,71,-137,124,-219,163r428,621v-70,7,-161,9,-236,0r-471,-682r0,-8v139,-33,268,-94,334,-204v23,-37,35,-83,35,-136v2,-197,-127,-291,-322,-291v-51,0,-83,3,-131,8r0,1313","w":1222},"S":{"d":"621,-1323v-160,0,-269,59,-269,209v0,134,112,179,213,219r115,45v186,76,346,161,346,420v0,141,-52,248,-146,333v-143,130,-473,151,-702,85r-84,-27v5,-65,30,-129,49,-184v98,34,184,61,322,61v112,0,196,-22,251,-68v55,-46,83,-108,83,-186v-1,-186,-143,-220,-279,-276v-190,-79,-389,-141,-387,-408v1,-264,201,-397,483,-397v126,0,251,25,342,57v-7,57,-22,114,-45,170v-80,-28,-178,-53,-292,-53","w":1116},"T":{"d":"51,-1290v-11,-54,-11,-129,0,-183r975,0v11,54,10,128,0,183r-383,0r0,1290v-63,8,-145,8,-209,0r0,-1290r-383,0","w":1077},"U":{"d":"1214,-600v2,387,-137,626,-524,625v-287,-1,-441,-129,-496,-361v-18,-78,-28,-166,-28,-264r0,-873v63,-8,146,-8,209,0r0,836v1,273,45,473,315,473v269,0,313,-200,314,-473r0,-836v67,-8,145,-8,210,0r0,873","w":1380},"V":{"d":"45,-1473v68,-11,162,-10,231,0r373,1260r371,-1260v70,-7,154,-9,223,0r-479,1473v-74,11,-168,11,-242,0","w":1288},"W":{"d":"55,-1473v68,-10,164,-11,232,0r252,1227r303,-1227v66,-10,153,-11,219,0r305,1240r256,-1240v62,-11,147,-10,209,0r-354,1473v-73,11,-170,10,-244,0r-291,-1153r-295,1153v-72,10,-166,11,-237,0","w":1886},"X":{"d":"100,-1470v72,-9,149,-9,222,0r292,700r-350,770v-82,8,-139,8,-221,0r365,-770xm631,-770r293,-700v65,-8,154,-13,219,0r-307,694r366,776v-84,8,-134,8,-221,0","w":1247},"Y":{"d":"715,0v-65,10,-147,11,-211,0r0,-539r-467,-934v70,-10,163,-11,233,0r344,732r340,-732v68,-11,153,-10,222,0r-461,934r0,539","w":1212},"Z":{"d":"1059,-182v11,52,11,130,0,182r-998,0r-12,-18r742,-1272r-650,0v-11,-53,-10,-129,0,-183r957,0r14,19r-743,1272r690,0","w":1159},"[":{"d":"543,178v11,50,11,116,0,166r-441,0r0,-1900r441,0v10,51,11,115,0,165r-240,0r0,1569r240,0","w":653},"\\":{"d":"764,0v-62,11,-137,10,-199,0r-499,-1473v60,-11,140,-11,200,0","w":843},"]":{"d":"111,-1389v-14,-49,-10,-117,0,-167r440,0r0,1900r-440,0v-12,-49,-12,-119,0,-166r239,0r0,-1567r-239,0","w":653},"^":{"d":"997,-754v-60,7,-129,9,-190,2r-250,-548r-240,548v-60,8,-130,5,-192,-2r332,-719v66,-11,146,-10,213,0","w":1126},"_":{"d":"12,180v-13,-44,-14,-105,0,-149r1012,0v11,46,11,103,0,149r-1012,0","w":1034},"`":{"d":"264,-1477v80,-11,180,-10,260,0r236,260v-64,11,-144,13,-205,0","w":1024},"a":{"d":"918,-27v-151,35,-388,76,-564,33v-155,-38,-255,-130,-256,-317v-1,-125,58,-210,134,-265v76,-56,184,-87,309,-88v73,0,123,4,178,11r0,-39v1,-162,-83,-213,-240,-215v-100,-1,-178,17,-256,41v-26,-45,-39,-99,-39,-162v86,-29,206,-47,316,-47v273,2,419,116,418,391r0,657xm561,-506v-154,0,-257,50,-260,191v-1,78,32,122,79,149v39,23,96,26,152,27v62,0,137,-8,187,-21r0,-334v-38,-5,-116,-12,-158,-12","w":1058},"b":{"d":"508,25v-117,0,-261,-28,-346,-58r0,-1468v61,-11,142,-10,203,0r0,577v51,-83,162,-154,303,-151v305,6,430,209,432,524v2,364,-219,576,-592,576xm629,-901v-170,0,-263,109,-264,291r0,440v88,28,218,34,305,-1v138,-54,214,-178,215,-372v0,-113,-19,-201,-59,-264v-40,-63,-106,-94,-197,-94","w":1208},"c":{"d":"631,25v-344,5,-529,-212,-529,-549v0,-255,110,-426,291,-508v135,-61,367,-53,500,0v0,53,-16,123,-35,162v-67,-23,-143,-35,-229,-35v-217,-2,-314,162,-314,381v0,244,108,379,330,379v88,0,152,-12,219,-37v21,38,41,101,43,159v-81,31,-173,47,-276,48","w":978},"d":{"d":"1038,-29v-162,48,-413,80,-599,26v-138,-40,-233,-127,-289,-255v-55,-126,-57,-343,-6,-480v51,-137,145,-237,275,-294v117,-51,295,-51,419,-12r0,-457v60,-10,140,-11,200,0r0,1472xm838,-872v-90,-37,-246,-48,-336,-2v-120,61,-179,189,-180,368v-1,243,113,359,337,363v66,1,129,-7,179,-21r0,-708","w":1200},"e":{"d":"971,-33v-144,66,-414,80,-573,18v-192,-75,-298,-242,-298,-503v0,-254,99,-429,276,-513v110,-52,295,-58,410,-7v184,82,275,290,244,563r-715,0v5,226,114,331,340,332v97,0,189,-17,277,-52v21,39,37,105,39,162xm317,-627r519,0v-2,-126,-50,-219,-137,-263v-31,-16,-67,-23,-109,-23v-177,0,-255,118,-273,286","w":1138},"f":{"d":"438,0v-61,11,-141,11,-202,0r0,-891r-173,0v-11,-43,-11,-116,0,-160r173,0r0,-73v-1,-255,129,-398,380,-398v66,0,114,7,164,21v-5,68,-13,109,-30,164v-81,-21,-208,-24,-258,29v-48,51,-57,149,-54,257r269,0v8,52,8,109,0,160r-269,0r0,891","w":757},"g":{"d":"393,-356v-34,19,-88,70,-84,123v5,72,47,93,146,94r272,4v121,3,208,30,264,77v90,76,110,247,39,354v-94,142,-284,213,-522,214v-141,0,-248,-22,-322,-66v-74,-44,-110,-112,-110,-206v0,-122,76,-211,162,-256v-51,-35,-98,-83,-97,-166v1,-112,57,-177,125,-230v-84,-58,-149,-156,-149,-291v0,-183,103,-290,245,-341v53,-19,114,-29,183,-29v124,-1,224,41,295,94v56,-45,158,-77,264,-76v12,55,9,126,0,183r-184,0v56,75,61,226,16,321v-63,134,-197,213,-391,215v-56,0,-107,-6,-152,-18xm451,27v-115,-6,-185,70,-185,172v0,130,120,151,252,151v109,0,195,-18,256,-54v61,-36,92,-81,92,-136v0,-100,-64,-127,-182,-129xm545,-928v-143,0,-215,89,-215,223v0,132,73,220,215,220v142,0,217,-86,217,-220v0,-134,-75,-223,-217,-223","w":1132},"h":{"d":"365,0v-61,10,-141,11,-203,0r0,-1501v61,-11,142,-10,203,0r0,610v62,-99,159,-184,321,-184v250,0,354,151,354,409r0,666v-60,10,-140,11,-200,0r0,-610v0,-97,-16,-168,-48,-214v-32,-46,-82,-69,-147,-69v-198,0,-279,143,-280,354r0,539","w":1183},"i":{"d":"92,-891v-11,-45,-11,-114,0,-160r332,0r0,1051v-60,10,-138,10,-199,0r0,-891r-133,0xm180,-1489v67,-10,152,-11,219,0v10,62,9,144,0,207v-67,11,-151,10,-219,0v-9,-63,-9,-144,0,-207","w":589},"j":{"d":"430,59v1,220,-113,322,-326,324v-73,0,-135,-9,-186,-27v3,-54,15,-112,33,-153v63,19,172,29,223,-9v37,-28,57,-76,57,-149r0,-936r-133,0v-11,-45,-11,-114,0,-160r332,0r0,1110xm182,-1284v-10,-65,-11,-138,0,-203v67,-12,150,-13,217,0v11,65,11,137,0,203v-67,13,-149,12,-217,0","w":593},"k":{"d":"358,0v-61,10,-141,11,-202,0r0,-1501v61,-11,141,-10,202,0r0,1501xm1028,0v-71,11,-154,10,-225,0r-389,-545r334,-506v69,-11,154,-10,223,0r-334,492","w":1052},"l":{"d":"444,14v-186,-1,-284,-94,-284,-286r0,-1229v60,-10,140,-11,200,0r0,1184v0,106,27,169,129,167v24,0,63,-3,82,-8v12,48,18,100,19,156v-35,13,-99,16,-146,16","w":610},"m":{"d":"367,0v-61,11,-142,10,-203,0r0,-1051v54,-10,118,-11,172,0v7,37,18,121,18,166v56,-106,149,-188,308,-190v167,-2,243,71,290,190v62,-99,147,-190,308,-190v252,0,348,148,348,405r0,670v-61,10,-142,11,-203,0r0,-610v0,-94,-14,-165,-43,-212v-29,-47,-76,-71,-141,-71v-155,0,-234,124,-234,299r0,594v-61,10,-140,11,-201,0r0,-625v0,-91,-15,-158,-40,-205v-39,-72,-149,-87,-228,-46v-103,54,-151,177,-151,339r0,537","w":1748},"n":{"d":"367,0v-61,11,-142,10,-203,0r0,-1051v54,-10,118,-11,172,0v7,36,18,127,18,170v66,-105,167,-194,336,-194v250,0,352,151,352,409r0,666v-61,10,-142,11,-202,0r0,-610v0,-97,-15,-168,-45,-214v-30,-46,-78,-69,-144,-69v-143,0,-222,80,-261,195v-16,46,-23,101,-23,166r0,532","w":1183},"o":{"d":"130,-307v-40,-131,-40,-304,0,-435v41,-135,124,-233,245,-290v118,-56,312,-56,430,0v176,83,274,254,274,508v0,252,-98,426,-274,507v-118,54,-312,55,-430,0v-121,-56,-205,-156,-245,-290xm382,-808v-87,123,-87,445,0,568v47,67,114,103,208,103v94,0,161,-36,208,-103v88,-124,88,-445,0,-568v-47,-66,-114,-101,-208,-101v-94,0,-161,35,-208,101","w":1181},"p":{"d":"365,483v-62,11,-141,12,-203,0r0,-1534v51,-11,120,-10,172,0v9,38,15,105,20,148v62,-98,159,-172,320,-172v302,0,424,212,426,524v3,356,-205,579,-561,576v-58,0,-130,-10,-174,-23r0,481xm365,-172v86,32,229,40,321,3v133,-54,200,-183,201,-374v0,-109,-23,-195,-61,-260v-51,-87,-183,-121,-296,-77v-103,41,-164,135,-165,282r0,426","w":1208},"q":{"d":"836,0v-119,29,-281,31,-402,-3v-135,-38,-229,-124,-284,-249v-55,-126,-58,-343,-4,-480v81,-206,251,-341,530,-343v152,-1,244,15,360,47r0,1511v-60,11,-140,12,-200,0r0,-483xm514,-164v96,33,232,16,322,-8r0,-717v-19,-4,-35,-7,-48,-9v-92,-12,-200,-9,-270,24v-132,62,-201,194,-201,385v0,173,69,282,197,325","w":1198},"r":{"d":"367,0v-62,11,-141,10,-203,0r0,-1051v53,-10,120,-11,172,0v7,37,18,121,18,166v63,-104,178,-195,359,-168v13,55,8,130,-2,185v-103,-14,-202,8,-257,65v-58,61,-87,151,-87,281r0,522","w":761},"s":{"d":"584,0v-149,47,-361,23,-486,-25v6,-59,28,-116,47,-165v109,47,313,78,419,8v37,-24,71,-61,71,-117v0,-117,-100,-138,-189,-170v-95,-34,-215,-85,-262,-137v-38,-42,-59,-97,-59,-166v0,-93,33,-166,99,-221v66,-55,164,-82,292,-82v104,0,215,25,291,51v-5,57,-23,114,-43,158v-95,-36,-267,-72,-376,-20v-38,18,-58,48,-58,93v0,107,96,126,178,156v94,34,198,59,259,126v43,46,73,108,71,198v-4,176,-112,268,-254,313","w":931},"t":{"d":"516,16v-203,-3,-313,-94,-313,-309r0,-596r-160,0r-8,-29r352,-393r16,0r0,260r267,0v11,47,10,114,0,162r-267,0r0,479v1,95,4,163,33,216v35,66,169,48,242,30v17,45,19,105,20,160v-55,13,-114,20,-182,20","w":733},"u":{"d":"1020,-33v-100,27,-244,60,-377,58v-143,-2,-263,-20,-346,-89v-99,-82,-145,-208,-145,-403r0,-584v61,-10,141,-11,202,0r0,576v-1,168,40,279,164,315v86,24,224,17,301,-8r0,-883v61,-10,140,-11,201,0r0,1018","w":1175},"v":{"d":"35,-1051v70,-10,159,-11,227,0r287,867r289,-867v65,-11,148,-10,215,0r-410,1051v-64,10,-138,11,-201,0","w":1087},"w":{"d":"45,-1051v68,-10,153,-11,219,0r205,858r231,-858v62,-11,146,-9,207,0r230,844r204,-844v62,-12,137,-9,201,0r-313,1051v-65,10,-142,11,-207,0r-225,-795r-236,795v-66,10,-143,11,-207,0","w":1587},"x":{"d":"37,0r285,-545r-248,-506v65,-11,153,-10,221,0r217,508r-262,543v-67,11,-146,10,-213,0xm1006,0v-67,10,-148,11,-213,0r-265,-543r220,-508v68,-10,150,-11,217,0r-244,500","w":1042},"y":{"d":"522,2r-67,2v-24,0,-60,-1,-80,-4r-348,-1051v68,-9,156,-8,223,0r291,977r301,-977v60,-8,145,-8,209,0r-408,1264v-59,163,-114,298,-328,297v-61,0,-128,-10,-174,-25v0,-66,13,-109,33,-157v55,19,166,35,214,-6v34,-29,53,-66,71,-121","w":1083},"z":{"d":"59,-29r553,-860r-487,0v-8,-48,-8,-114,0,-162r788,0r11,27r-557,862r522,0v8,52,8,111,0,162r-819,0","w":976},"{":{"d":"735,178v11,48,10,113,0,162v-223,1,-356,-62,-403,-232v-40,-147,1,-390,-50,-528v-34,-91,-90,-132,-180,-180r0,-27v96,-51,172,-108,196,-226v7,-35,11,-75,11,-122v1,-257,6,-473,179,-554v58,-27,146,-40,247,-38v10,48,11,115,0,162v-143,-3,-209,45,-222,168v-16,148,3,363,-44,478v-29,70,-72,111,-137,145v101,53,148,133,166,276v16,128,-15,350,46,444v35,54,95,72,191,72","w":847},"|":{"d":"440,344v-59,11,-139,11,-198,0r0,-1933v59,-11,139,-11,198,0r0,1933","w":681},"}":{"d":"111,340v-10,-49,-13,-115,0,-162v139,1,209,-45,222,-168v16,-149,-5,-363,43,-478v29,-70,73,-111,138,-146v-102,-50,-149,-133,-166,-275v-15,-129,14,-350,-46,-445v-35,-55,-97,-71,-191,-71v-11,-47,-13,-114,0,-162v186,-4,306,37,367,151v59,111,59,263,59,441v0,139,34,227,111,288v27,21,58,41,95,60r0,27v-130,64,-194,142,-204,320v-6,108,2,293,-25,388v-47,169,-182,234,-403,232","w":847},"~":{"d":"313,-786v-87,0,-131,27,-186,79v-43,-38,-73,-82,-88,-131v51,-61,159,-122,270,-120v139,3,228,81,369,81v81,0,122,-25,176,-75v42,38,65,85,86,141v-61,60,-141,107,-260,106v-140,-2,-231,-81,-367,-81","w":976},"\u00a0":{"w":0},"\u00a1":{"d":"182,-825v-11,-71,-10,-158,0,-230v72,-11,158,-10,230,0v11,72,11,158,0,230v-72,11,-158,11,-230,0xm403,418v-70,11,-149,10,-219,0r13,-1030v60,-11,133,-12,192,0","w":593},"\u00a2":{"d":"666,18v-286,-27,-437,-231,-437,-542v0,-233,92,-399,246,-486v55,-31,118,-51,191,-59r0,-234v52,-14,89,-13,143,0r0,232v79,5,146,18,209,41v0,56,-18,119,-35,160v-68,-21,-139,-35,-227,-35v-219,-2,-320,159,-320,381v0,246,110,381,334,381v89,0,150,-12,219,-37v21,39,41,101,43,160v-70,21,-140,36,-223,43r0,219v-42,11,-101,11,-143,0r0,-224"},"\u00a3":{"d":"580,-625v36,149,17,346,-58,441r557,0v9,57,7,128,0,184r-868,0r-8,-25v40,-36,79,-73,107,-123v46,-81,79,-179,79,-296v0,-66,-8,-123,-20,-181r-179,0v-8,-50,-8,-107,0,-159r146,0v-23,-130,-49,-286,-2,-413v63,-170,203,-277,436,-278v131,-1,223,21,307,56v-7,66,-20,115,-47,170v-76,-33,-142,-49,-248,-49v-180,0,-259,110,-262,284v-1,87,16,157,31,230r383,0v7,51,9,109,0,159r-354,0"},"\u00a4":{"d":"1061,-713v0,102,-36,181,-78,246r156,156v-30,52,-69,92,-117,121r-162,-160v-140,99,-354,98,-493,0r-158,157v-58,-25,-95,-68,-121,-122r156,-156v-43,-62,-71,-143,-72,-242v0,-103,33,-180,78,-245r-162,-164v29,-58,67,-95,125,-121r162,164v62,-43,141,-72,239,-72v100,0,178,30,242,72r164,-164v48,30,93,69,121,119r-162,161v47,64,81,147,82,250xm374,-819v-26,64,-26,149,0,213v38,93,115,166,240,166v127,0,204,-74,244,-166v27,-64,27,-149,0,-213v-41,-93,-116,-166,-244,-166v-124,0,-202,74,-240,166"},"\u00a5":{"d":"137,-643v-11,-33,-10,-103,0,-141r295,0r-377,-664v71,-10,164,-11,234,0r336,619r329,-619v68,-11,154,-11,222,0r-371,664r311,0v9,39,7,104,0,141r-393,0r0,180r393,0v9,38,7,105,0,141r-393,0r0,322v-64,11,-145,11,-209,0r0,-322r-377,0v-11,-34,-10,-103,0,-141r377,0r0,-180r-377,0"},"\u00a6":{"d":"440,344v-59,11,-139,11,-198,0r0,-682v59,-11,139,-11,198,0r0,682xm440,-907v-54,11,-141,11,-198,0r0,-682v59,-11,139,-11,198,0r0,682","w":681},"\u00a7":{"d":"193,-188v74,30,173,58,280,57v91,0,162,-12,213,-37v51,-25,76,-60,76,-106v0,-39,-15,-70,-48,-87v-145,-78,-368,-113,-486,-196v-62,-43,-93,-88,-93,-182v0,-105,62,-187,117,-248v-40,-40,-70,-98,-68,-176v5,-166,116,-246,256,-285v53,-14,113,-22,178,-22v138,0,224,22,328,55v0,62,-25,117,-49,160v-74,-31,-153,-57,-260,-56v-79,0,-140,11,-183,34v-43,23,-65,57,-65,103v0,44,14,76,43,92v98,55,251,88,369,126v141,46,213,124,213,241v0,118,-60,194,-117,262v42,41,70,92,70,174v-2,110,-60,177,-133,225v-159,105,-502,100,-693,25v9,-60,27,-113,52,-159xm395,-909v-31,30,-76,80,-73,143v4,85,57,112,135,137r293,94v31,-29,79,-85,75,-151v-5,-75,-54,-105,-125,-127r-145,-45v-55,-18,-115,-27,-160,-51","w":1150},"\u00a8":{"d":"199,-1237v-11,-64,-12,-140,0,-205v65,-11,144,-10,209,0v11,62,10,142,0,205v-68,7,-143,9,-209,0xm616,-1237v-11,-62,-10,-141,0,-205v65,-11,144,-10,209,0v8,70,8,136,0,205v-69,8,-142,9,-209,0","w":1024},"\u00a9":{"d":"162,-432v-73,-182,-73,-423,0,-606v75,-188,209,-322,394,-400v182,-77,437,-78,620,-2v185,77,321,216,395,402v73,182,73,425,0,606v-75,186,-210,322,-395,400v-182,77,-438,77,-620,0v-185,-78,-319,-214,-394,-400xm298,-981v-56,150,-56,341,0,491v57,154,165,268,312,334v145,65,367,65,512,0v212,-95,355,-285,355,-579v0,-293,-144,-486,-355,-580v-145,-64,-367,-64,-512,0v-148,65,-256,180,-312,334xm1073,-487v22,40,35,83,43,137v-107,49,-277,61,-389,11v-142,-62,-229,-195,-229,-394v0,-199,88,-337,228,-403v105,-49,273,-39,376,-1v-3,54,-13,102,-33,142v-57,-17,-94,-25,-162,-25v-162,-1,-237,119,-237,287v0,171,82,278,241,278v65,0,112,-10,162,-32","w":1732},"\u00aa":{"d":"483,-608v-215,-2,-356,-60,-356,-264v0,-154,98,-226,223,-260v81,-22,191,-20,279,-9r0,-26v0,-125,-70,-158,-195,-158v-75,0,-143,12,-203,31v-19,-35,-34,-87,-34,-138v70,-20,171,-36,260,-36v220,1,342,89,342,307r0,512v-79,19,-212,43,-316,41xm512,-1016v-122,0,-220,33,-221,142v-2,153,205,137,338,116r0,-250v-30,-5,-81,-8,-117,-8","w":1024},"\u00ab":{"d":"616,547r340,452v17,3,34,5,51,7v17,1,34,2,52,2v19,0,39,-1,58,-2v19,-1,37,-4,56,-7r-333,-450r333,-457v-19,-3,-38,-5,-57,-6v-18,-1,-36,-2,-55,-2v-38,0,-73,3,-105,8xm100,547r340,452v17,3,34,5,51,7v17,1,34,2,52,2v19,0,39,-1,58,-2v19,-1,37,-4,56,-7r-333,-450r333,-457v-19,-3,-38,-5,-57,-6v-18,-1,-36,-2,-55,-2v-38,0,-73,3,-105,8","w":1265},"\u00ac":{"d":"186,-602v-11,-54,-10,-134,0,-189r854,0r0,572v-54,11,-134,10,-188,0r0,-383r-666,0"},"\u00ad":{"d":"104,-481v-11,-54,-10,-132,0,-187r531,0v10,54,11,133,0,187r-531,0","w":739},"\u00ae":{"d":"160,-432v-73,-182,-73,-423,0,-606v75,-188,209,-322,394,-400v182,-77,437,-77,620,-2v186,77,319,216,394,402v73,182,73,425,0,606v-75,186,-209,322,-394,400v-182,77,-438,77,-620,0v-185,-78,-319,-214,-394,-400xm298,-981v-56,150,-56,343,0,493v57,155,163,266,312,332v147,65,364,65,510,0v212,-95,355,-283,355,-579v0,-293,-144,-485,-355,-578v-145,-64,-364,-64,-510,0v-149,65,-255,177,-312,332xm999,-897v2,-109,-118,-141,-231,-119r0,662v-42,8,-111,8,-156,0r0,-789v35,-4,70,-7,104,-10v227,-18,441,19,445,240v2,118,-71,192,-143,231r215,326v-58,8,-122,8,-178,0r-234,-365v51,-21,93,-43,134,-79v29,-25,44,-58,44,-97","w":1732},"\u00af":{"d":"236,-1270v-11,-43,-13,-108,0,-151r552,0v11,43,13,108,0,151r-552,0","w":1024},"\u00b0":{"d":"106,-1072v-32,-72,-31,-163,0,-234v31,-72,87,-127,159,-158v71,-31,161,-31,233,0v104,45,184,133,184,276v0,140,-81,229,-184,274v-73,31,-160,31,-232,0v-72,-31,-129,-86,-160,-158xm381,-1350v-88,0,-152,72,-152,162v0,90,64,160,152,160v88,0,156,-70,156,-160v0,-89,-69,-162,-156,-162","w":757},"\u00b1":{"d":"180,-2v-9,-53,-8,-132,0,-186r869,0v10,54,11,132,0,186r-869,0xm176,721v0,33,3,63,8,90r340,0r0,373v15,3,30,5,45,6v14,1,29,2,45,2v15,0,31,-1,46,-2v15,-1,30,-3,47,-6r0,-373r337,0v3,-15,5,-31,7,-46v1,-15,2,-29,2,-44v0,-15,-1,-31,-2,-47v-1,-15,-4,-30,-7,-45r-337,0r0,-371v-17,-3,-33,-5,-48,-6v-15,-1,-30,-2,-45,-2v-34,0,-64,3,-90,8r0,371r-340,0v-5,27,-8,58,-8,92"},"\u00b2":{"d":"778,-774v5,44,5,103,0,147r-633,0r-10,-24r139,-145v87,-89,174,-182,237,-280v27,-42,40,-80,40,-114v2,-92,-80,-111,-170,-113v-77,-1,-122,15,-174,35v-14,-40,-33,-93,-39,-145v80,-28,141,-45,242,-45v180,-1,322,81,321,254v0,61,-17,119,-47,175v-44,82,-144,181,-219,255r313,0","w":921},"\u00b3":{"d":"600,-891v0,-115,-142,-144,-254,-119r-22,-24r178,-273r-287,0v-8,-50,-8,-91,0,-141r524,0r17,31r-201,291v105,13,177,71,209,155v26,67,14,143,-14,200v-68,138,-261,192,-472,161v-43,-6,-76,-15,-118,-27v5,-49,22,-103,41,-139v63,18,120,34,194,35v106,0,205,-43,205,-150","w":921},"\u00b4":{"d":"266,-1217r236,-260v79,-10,180,-11,258,0r-291,260v-60,11,-141,12,-203,0","w":1024},"\u00b5":{"d":"362,483v-60,11,-138,12,-198,0r0,-1534v61,-10,140,-11,201,0r0,549v0,120,22,209,60,268v52,81,180,110,289,70v104,-38,166,-130,165,-276r0,-611v60,-10,140,-11,200,0r0,1051v-46,12,-112,10,-159,0r-14,-64v-6,-26,-10,-48,-13,-67v-66,88,-154,158,-309,156v-93,0,-167,-31,-222,-93r0,551","w":1234},"\u00b6":{"d":"138,-860v-49,-103,-45,-285,1,-386v85,-192,310,-239,596,-239r0,1497v-68,0,-118,-4,-151,-12r0,-641v-221,5,-374,-68,-446,-219xm891,12r0,-1497v68,0,118,4,151,12r0,1473v-33,8,-83,12,-151,12","w":1169},"\u00b7":{"d":"135,-453v-11,-70,-10,-153,0,-223v70,-11,153,-11,223,0v11,70,12,153,0,223v-71,12,-152,12,-223,0","w":493},"\u00b8":{"d":"444,494v-52,-1,-113,-4,-155,-23v4,-43,8,-90,28,-119v41,13,83,21,127,21v75,0,142,-16,142,-82v0,-62,-65,-71,-133,-72v-40,0,-81,7,-115,14r-12,-10r100,-272r131,0r-68,168v139,-23,254,45,252,172v0,67,-27,117,-81,151v-54,34,-125,52,-216,52","w":1024},"\u00b9":{"d":"223,-627v-14,-41,-13,-103,0,-145r197,0r0,-469r-191,78v-35,-35,-53,-77,-67,-131r395,-162r35,0r0,684r190,0v11,46,12,100,0,145r-559,0","w":921},"\u00ba":{"d":"156,-874v-31,-103,-31,-230,0,-332v32,-105,98,-186,191,-232v92,-46,239,-46,331,0v135,67,213,203,213,398v0,195,-78,334,-213,401v-92,46,-239,46,-331,0v-93,-46,-159,-129,-191,-235xm512,-1325v-147,0,-199,126,-199,285v0,159,52,286,199,286v149,0,199,-126,199,-286v0,-160,-50,-285,-199,-285","w":1024},"\u00bb":{"d":"602,92r336,451r-336,456v19,3,38,5,57,7v18,1,37,2,56,2v18,0,36,-1,54,-2v17,-1,34,-4,50,-7r342,-454r-342,-453v-17,-3,-33,-5,-50,-7v-16,-2,-33,-3,-52,-3v-19,0,-39,1,-58,3v-19,2,-38,4,-57,7xm88,92r336,451r-336,456v19,3,38,5,57,7v18,1,37,2,56,2v18,0,36,-1,54,-2v17,-1,34,-4,50,-7r342,-454r-342,-453v-17,-3,-33,-5,-50,-7v-16,-2,-33,-3,-52,-3v-19,0,-39,1,-58,3v-19,2,-38,4,-57,7","w":1263},"\u00bc":{"d":"1987,-305v10,38,11,111,0,146r-99,0r0,157v-55,8,-109,8,-161,0r0,-157r-426,0r-17,-27r336,-666v55,7,105,23,150,50r-244,497r201,0r0,-162v51,-8,109,-8,161,0r0,162r99,0xm1505,-1450v63,-11,144,-10,207,0r-989,1448v-66,10,-143,11,-207,0xm133,1294r395,162r35,0r0,-684r190,0v5,-23,8,-47,9,-72v0,-26,-3,-50,-9,-73r-559,0v-4,12,-7,24,-8,35v-1,11,-2,23,-2,38v0,12,1,24,2,36v1,12,4,24,8,36r197,0r0,469r-191,-78v-18,18,-32,38,-42,60v-10,21,-18,45,-25,71","w":2150},"\u00bd":{"d":"1470,-1450v63,-11,144,-10,207,0r-989,1448v-66,10,-143,11,-207,0xm127,1294r395,162r35,0r0,-684r190,0v5,-23,8,-47,9,-72v0,-26,-3,-50,-9,-73r-559,0v-4,12,-7,24,-8,35v-1,11,-2,23,-2,38v0,12,1,24,2,36v1,12,4,24,8,36r197,0r0,469r-191,-78v-18,18,-32,38,-42,60v-10,21,-18,45,-25,71xm1352,1276r139,145v49,50,95,99,136,146v41,47,74,91,101,134v27,42,40,80,40,114v0,44,-16,74,-49,90v-33,15,-73,23,-121,23v-41,0,-74,-4,-100,-11v-26,-7,-51,-15,-74,-24v-7,18,-14,40,-22,65v-7,25,-13,51,-17,80v42,15,82,27,119,34v37,7,78,11,123,11v97,0,174,-22,233,-66v59,-43,88,-106,88,-188v0,-61,-16,-120,-47,-175v-31,-55,-78,-114,-139,-175r-80,-80r313,0v1,-11,2,-22,3,-35v1,-12,1,-25,1,-39v0,-13,-0,-26,-1,-39v-1,-12,-2,-23,-3,-34r-633,0","w":2150},"\u00be":{"d":"2005,-322v10,38,11,111,0,146r-99,0r0,157v-55,8,-109,8,-161,0r0,-157r-426,0r-17,-27r336,-666v55,7,105,23,150,50r-244,497r201,0r0,-162v51,-8,109,-8,161,0r0,162r99,0xm1517,-1450v63,-11,144,-10,207,0r-989,1448v-66,10,-143,11,-207,0xm174,637v3,25,8,49,15,74v7,25,16,46,26,65v35,-11,69,-19,100,-26v31,-6,63,-9,94,-9v56,0,104,12,145,36v40,24,60,62,60,114v0,44,-18,76,-53,97v-35,20,-76,30,-121,30v-13,0,-26,-0,-39,-1v-12,-1,-26,-3,-41,-7r-22,24r178,273r-287,0v-4,25,-6,48,-6,69v0,23,2,47,6,72r524,0r17,-31r-201,-291v37,-4,69,-14,97,-30v28,-15,51,-34,70,-55v19,-21,33,-44,42,-70v9,-26,14,-51,14,-76v0,-47,-10,-88,-29,-124v-19,-36,-45,-67,-78,-92v-33,-25,-73,-45,-120,-58v-47,-13,-97,-19,-150,-19v-25,0,-47,1,-67,2v-19,1,-38,3,-57,6v-18,3,-36,6,-55,11v-18,4,-39,9,-62,16","w":2150},"\u00bf":{"d":"956,362v-105,35,-204,58,-342,58v-161,0,-284,-37,-366,-110v-82,-73,-123,-170,-123,-290v0,-140,69,-236,141,-304v58,-55,141,-96,211,-122r0,-210v59,-10,136,-13,195,0r0,331v-135,36,-256,81,-310,192v-15,32,-22,69,-22,111v3,154,129,224,301,224v121,0,178,-18,264,-49v23,51,43,104,51,169xm461,-825v-11,-71,-10,-156,0,-228v69,-11,161,-11,229,0v11,72,10,156,0,228v-19,3,-39,5,-58,7v-58,7,-119,1,-171,-7","w":999},"\u00c0":{"d":"274,-1817v85,-13,197,-12,283,0r215,222v-64,11,-152,10,-217,0xm33,0r479,1473v18,3,37,5,58,6v20,1,41,2,63,2v19,0,39,-1,60,-2v20,-1,40,-3,59,-6r477,-1473v-17,-3,-35,-5,-56,-6v-20,-1,-40,-2,-59,-2v-18,0,-36,1,-55,2v-18,1,-35,3,-51,6r-103,340r-559,0r-100,-340v-18,-3,-36,-5,-54,-6v-17,-1,-35,-2,-53,-2v-19,0,-38,1,-56,2v-18,1,-35,3,-50,6xm401,522r449,0r-225,752","w":1263},"\u00c1":{"d":"680,-1595v-68,10,-151,11,-219,0r217,-222v22,-3,45,-5,70,-7v71,-6,149,-2,211,7xm33,0r479,1473v18,3,37,5,58,6v20,1,41,2,63,2v19,0,39,-1,60,-2v20,-1,40,-3,59,-6r477,-1473v-17,-3,-35,-5,-56,-6v-20,-1,-40,-2,-59,-2v-18,0,-36,1,-55,2v-18,1,-35,3,-51,6r-103,340r-559,0r-100,-340v-18,-3,-36,-5,-54,-6v-17,-1,-35,-2,-53,-2v-19,0,-38,1,-56,2v-18,1,-35,3,-50,6xm401,522r449,0r-225,752","w":1263},"\u00c2":{"d":"985,-1595v-63,12,-159,11,-223,0r-133,-125r-133,125v-66,11,-162,12,-227,0r241,-222v70,-11,170,-11,240,0xm33,0r479,1473v18,3,37,5,58,6v20,1,41,2,63,2v19,0,39,-1,60,-2v20,-1,40,-3,59,-6r477,-1473v-17,-3,-35,-5,-56,-6v-20,-1,-40,-2,-59,-2v-18,0,-36,1,-55,2v-18,1,-35,3,-51,6r-103,340r-559,0r-100,-340v-18,-3,-36,-5,-54,-6v-17,-1,-35,-2,-53,-2v-19,0,-38,1,-56,2v-18,1,-35,3,-50,6xm401,522r449,0r-225,752","w":1263},"\u00c3":{"d":"330,-1642v-28,-36,-56,-68,-68,-117v43,-46,117,-105,207,-105v65,0,121,32,170,52v48,20,100,51,162,51v71,0,92,-28,139,-70v31,38,54,78,68,121v-45,43,-117,99,-205,98v-134,-2,-204,-100,-332,-100v-72,0,-94,32,-141,70xm33,0r479,1473v18,3,37,5,58,6v20,1,41,2,63,2v19,0,39,-1,60,-2v20,-1,40,-3,59,-6r477,-1473v-17,-3,-35,-5,-56,-6v-20,-1,-40,-2,-59,-2v-18,0,-36,1,-55,2v-18,1,-35,3,-51,6r-103,340r-559,0r-100,-340v-18,-3,-36,-5,-54,-6v-17,-1,-35,-2,-53,-2v-19,0,-38,1,-56,2v-18,1,-35,3,-50,6xm401,522r449,0r-225,752","w":1263},"\u00c4":{"d":"516,-1616v-67,11,-147,10,-215,0v-8,-70,-8,-136,0,-207v68,-10,149,-11,215,0v11,61,12,146,0,207xm957,-1616v-68,10,-148,11,-215,0v-12,-68,-16,-133,0,-207v66,-11,148,-10,215,0v8,70,8,138,0,207xm33,0r479,1473v18,3,37,5,58,6v20,1,41,2,63,2v19,0,39,-1,60,-2v20,-1,40,-3,59,-6r477,-1473v-17,-3,-35,-5,-56,-6v-20,-1,-40,-2,-59,-2v-18,0,-36,1,-55,2v-18,1,-35,3,-51,6r-103,340r-559,0r-100,-340v-18,-3,-36,-5,-54,-6v-17,-1,-35,-2,-53,-2v-19,0,-38,1,-56,2v-18,1,-35,3,-50,6xm401,522r449,0r-225,752","w":1263},"\u00c5":{"d":"1229,0v-66,10,-155,11,-221,0r-105,-340r-555,0r-102,340v-65,10,-149,11,-213,0r479,-1468v-70,-35,-124,-108,-125,-209v-1,-138,103,-240,244,-240v138,0,243,102,243,240v0,102,-54,174,-124,209xm401,-522r449,0r-225,-744xm631,-1810v-73,0,-113,59,-113,133v0,75,40,133,113,133v73,0,110,-59,110,-133v0,-75,-37,-133,-110,-133","w":1263},"\u00c6":{"d":"1794,-182v11,54,10,128,0,182r-825,0r0,-344r-551,0r-195,344v-72,10,-163,11,-233,0r864,-1473r924,0v11,56,10,129,0,185r-600,0r0,444r481,0v7,54,9,128,0,182r-481,0r0,480r616,0xm516,-524r453,0r0,-781r-11,0","w":1888},"\u00c7":{"d":"723,219v-45,0,-80,3,-117,17r-16,-19r40,-101r38,-104v-271,-45,-437,-211,-511,-456v-55,-178,-48,-429,9,-600v62,-186,181,-323,352,-399v176,-78,468,-63,633,3v-6,70,-25,113,-49,170v-84,-28,-168,-45,-285,-45v-147,0,-263,51,-347,153v-84,102,-126,247,-126,437v0,272,97,456,289,533v145,58,364,39,487,-23v25,55,45,108,58,172v-119,48,-240,69,-385,66r-35,88v13,-2,24,-5,39,-5v134,-4,217,68,217,183v0,67,-27,117,-80,153v-84,58,-267,69,-383,27v4,-47,7,-92,31,-123v48,15,91,23,129,23v95,0,143,-27,143,-80v0,-61,-62,-70,-131,-70","w":1265},"\u00c8":{"d":"262,-1817v85,-13,197,-12,283,0r215,222v-64,11,-152,10,-217,0xm180,0r0,1473r809,0v4,-27,6,-58,6,-91v0,-15,-0,-31,-1,-47v-1,-16,-2,-31,-5,-45r-600,0r0,-422r479,0v3,-13,5,-28,7,-44v1,-15,2,-31,2,-46v0,-15,-1,-31,-3,-47v-1,-16,-3,-31,-6,-45r-479,0r0,-504r617,0v4,-27,6,-57,6,-90v0,-15,-0,-31,-1,-48v-1,-16,-2,-31,-5,-44r-826,0","w":1097},"\u00c9":{"d":"614,-1595v-68,10,-151,11,-219,0r217,-222v22,-3,45,-5,70,-7v71,-6,149,-2,211,7xm180,0r0,1473r809,0v4,-27,6,-58,6,-91v0,-15,-0,-31,-1,-47v-1,-16,-2,-31,-5,-45r-600,0r0,-422r479,0v3,-13,5,-28,7,-44v1,-15,2,-31,2,-46v0,-15,-1,-31,-3,-47v-1,-16,-3,-31,-6,-45r-479,0r0,-504r617,0v4,-27,6,-57,6,-90v0,-15,-0,-31,-1,-48v-1,-16,-2,-31,-5,-44r-826,0","w":1097},"\u00ca":{"d":"940,-1595v-63,12,-159,11,-223,0r-133,-125r-133,125v-66,11,-162,12,-227,0r241,-222v70,-11,170,-11,240,0xm180,0r0,1473r809,0v4,-27,6,-58,6,-91v0,-15,-0,-31,-1,-47v-1,-16,-2,-31,-5,-45r-600,0r0,-422r479,0v3,-13,5,-28,7,-44v1,-15,2,-31,2,-46v0,-15,-1,-31,-3,-47v-1,-16,-3,-31,-6,-45r-479,0r0,-504r617,0v4,-27,6,-57,6,-90v0,-15,-0,-31,-1,-48v-1,-16,-2,-31,-5,-44r-826,0","w":1097},"\u00cb":{"d":"467,-1616v-67,11,-147,10,-215,0v-8,-70,-8,-136,0,-207v68,-10,149,-11,215,0v11,61,12,146,0,207xm908,-1616v-68,10,-148,11,-215,0v-12,-68,-16,-133,0,-207v66,-11,148,-10,215,0v8,70,8,138,0,207xm180,0r0,1473r809,0v4,-27,6,-58,6,-91v0,-15,-0,-31,-1,-47v-1,-16,-2,-31,-5,-45r-600,0r0,-422r479,0v3,-13,5,-28,7,-44v1,-15,2,-31,2,-46v0,-15,-1,-31,-3,-47v-1,-16,-3,-31,-6,-45r-479,0r0,-504r617,0v4,-27,6,-57,6,-90v0,-15,-0,-31,-1,-48v-1,-16,-2,-31,-5,-44r-826,0","w":1097},"\u00cc":{"d":"-43,-1817v85,-13,197,-12,283,0r215,222v-64,11,-152,10,-217,0xm180,0r0,1473v17,3,34,5,52,6v17,1,35,2,53,2v18,0,36,-1,54,-2v17,-1,34,-3,50,-6r0,-1473v-17,-3,-34,-5,-51,-6v-17,-1,-34,-2,-53,-2v-18,0,-36,1,-55,2v-18,1,-35,3,-50,6","w":569},"\u00cd":{"d":"348,-1595v-68,10,-151,11,-219,0r217,-222v22,-3,45,-5,70,-7v71,-6,149,-2,211,7xm180,0r0,1473v17,3,34,5,52,6v17,1,35,2,53,2v18,0,36,-1,54,-2v17,-1,34,-3,50,-6r0,-1473v-17,-3,-34,-5,-51,-6v-17,-1,-34,-2,-53,-2v-18,0,-36,1,-55,2v-18,1,-35,3,-50,6","w":569},"\u00ce":{"d":"643,-1595v-63,12,-159,11,-223,0r-133,-125r-133,125v-66,11,-162,12,-227,0r241,-222v70,-11,170,-11,240,0xm180,0r0,1473v17,3,34,5,52,6v17,1,35,2,53,2v18,0,36,-1,54,-2v17,-1,34,-3,50,-6r0,-1473v-17,-3,-34,-5,-51,-6v-17,-1,-34,-2,-53,-2v-18,0,-36,1,-55,2v-18,1,-35,3,-50,6","w":569},"\u00cf":{"d":"174,-1616v-67,11,-147,10,-215,0v-8,-70,-8,-136,0,-207v68,-10,149,-11,215,0v11,61,12,146,0,207xm615,-1616v-68,10,-148,11,-215,0v-12,-68,-16,-133,0,-207v66,-11,148,-10,215,0v8,70,8,138,0,207xm180,0r0,1473v17,3,34,5,52,6v17,1,35,2,53,2v18,0,36,-1,54,-2v17,-1,34,-3,50,-6r0,-1473v-17,-3,-34,-5,-51,-6v-17,-1,-34,-2,-53,-2v-18,0,-36,1,-55,2v-18,1,-35,3,-50,6","w":569},"\u00d0":{"d":"33,-678v-11,-44,-11,-109,0,-153r168,0r0,-642v98,-11,246,-22,360,-22v508,0,769,264,770,762v0,515,-263,757,-778,758v-116,1,-256,-11,-352,-25r0,-678r-168,0xm741,-831v12,44,12,109,0,153r-331,0r0,506v120,16,275,13,380,-18v223,-65,321,-251,320,-549v-1,-370,-173,-568,-535,-570v-51,0,-122,-1,-165,9r0,469r331,0","w":1449},"\u00d1":{"d":"400,-1642v-28,-36,-56,-68,-68,-117v43,-46,117,-105,207,-105v65,0,121,32,170,52v48,20,100,51,162,51v71,0,92,-28,139,-70v31,38,54,78,68,121v-45,43,-117,99,-205,98v-134,-2,-204,-100,-332,-100v-72,0,-94,32,-141,70xm180,0r0,1473v15,3,32,5,49,6v17,1,32,2,47,2v15,0,32,-1,49,-2v17,-1,33,-3,48,-6r641,-1106r0,1106v17,3,34,5,52,6v17,1,35,2,52,2v15,0,31,-1,48,-2v16,-1,31,-3,46,-6r0,-1473v-15,-3,-31,-5,-48,-6v-17,-1,-33,-2,-48,-2v-15,0,-32,1,-49,2v-17,1,-32,3,-47,6r-643,1100r0,-1100v-15,-3,-32,-5,-49,-6v-17,-1,-33,-2,-49,-2v-18,0,-36,1,-53,2v-17,1,-33,3,-46,6","w":1392},"\u00d2":{"d":"379,-1817v85,-13,197,-12,283,0r215,222v-64,11,-152,10,-217,0xm121,735v0,111,13,213,38,306v25,93,64,173,115,240v51,67,115,120,193,159v78,38,170,57,277,57v107,0,199,-19,277,-58v77,-38,142,-91,193,-158v51,-67,88,-148,113,-241v25,-93,37,-194,37,-305v0,-111,-12,-212,-37,-305v-25,-93,-63,-173,-114,-241v-51,-67,-115,-120,-193,-158v-78,-37,-170,-56,-276,-56v-107,0,-199,19,-277,57v-78,37,-143,90,-194,158v-51,67,-89,147,-114,240v-25,93,-38,194,-38,305xm344,735v0,-90,8,-171,25,-242v16,-71,41,-131,74,-182v33,-50,74,-88,124,-115v49,-27,108,-40,177,-40v68,0,127,13,177,40v49,27,91,65,124,116v33,50,57,111,74,182v16,71,24,151,24,241v0,89,-8,169,-25,241v-16,71,-41,132,-74,182v-33,50,-74,88,-124,115v-49,27,-108,40,-176,40v-68,0,-127,-13,-177,-40v-50,-27,-92,-65,-125,-115v-33,-50,-57,-111,-74,-183v-16,-71,-24,-151,-24,-240","w":1482},"\u00d3":{"d":"792,-1595v-68,10,-151,11,-219,0r217,-222v22,-3,45,-5,70,-7v71,-6,149,-2,211,7xm121,735v0,111,13,213,38,306v25,93,64,173,115,240v51,67,115,120,193,159v78,38,170,57,277,57v107,0,199,-19,277,-58v77,-38,142,-91,193,-158v51,-67,88,-148,113,-241v25,-93,37,-194,37,-305v0,-111,-12,-212,-37,-305v-25,-93,-63,-173,-114,-241v-51,-67,-115,-120,-193,-158v-78,-37,-170,-56,-276,-56v-107,0,-199,19,-277,57v-78,37,-143,90,-194,158v-51,67,-89,147,-114,240v-25,93,-38,194,-38,305xm344,735v0,-90,8,-171,25,-242v16,-71,41,-131,74,-182v33,-50,74,-88,124,-115v49,-27,108,-40,177,-40v68,0,127,13,177,40v49,27,91,65,124,116v33,50,57,111,74,182v16,71,24,151,24,241v0,89,-8,169,-25,241v-16,71,-41,132,-74,182v-33,50,-74,88,-124,115v-49,27,-108,40,-176,40v-68,0,-127,-13,-177,-40v-50,-27,-92,-65,-125,-115v-33,-50,-57,-111,-74,-183v-16,-71,-24,-151,-24,-240","w":1482},"\u00d4":{"d":"1095,-1595v-63,12,-159,11,-223,0r-133,-125r-133,125v-66,11,-162,12,-227,0r241,-222v70,-11,170,-11,240,0xm121,735v0,111,13,213,38,306v25,93,64,173,115,240v51,67,115,120,193,159v78,38,170,57,277,57v107,0,199,-19,277,-58v77,-38,142,-91,193,-158v51,-67,88,-148,113,-241v25,-93,37,-194,37,-305v0,-111,-12,-212,-37,-305v-25,-93,-63,-173,-114,-241v-51,-67,-115,-120,-193,-158v-78,-37,-170,-56,-276,-56v-107,0,-199,19,-277,57v-78,37,-143,90,-194,158v-51,67,-89,147,-114,240v-25,93,-38,194,-38,305xm344,735v0,-90,8,-171,25,-242v16,-71,41,-131,74,-182v33,-50,74,-88,124,-115v49,-27,108,-40,177,-40v68,0,127,13,177,40v49,27,91,65,124,116v33,50,57,111,74,182v16,71,24,151,24,241v0,89,-8,169,-25,241v-16,71,-41,132,-74,182v-33,50,-74,88,-124,115v-49,27,-108,40,-176,40v-68,0,-127,-13,-177,-40v-50,-27,-92,-65,-125,-115v-33,-50,-57,-111,-74,-183v-16,-71,-24,-151,-24,-240","w":1482},"\u00d5":{"d":"447,-1642v-28,-36,-56,-68,-68,-117v43,-46,117,-105,207,-105v65,0,121,32,170,52v48,20,100,51,162,51v71,0,92,-28,139,-70v31,38,54,78,68,121v-45,43,-117,99,-205,98v-134,-2,-204,-100,-332,-100v-72,0,-94,32,-141,70xm121,735v0,111,13,213,38,306v25,93,64,173,115,240v51,67,115,120,193,159v78,38,170,57,277,57v107,0,199,-19,277,-58v77,-38,142,-91,193,-158v51,-67,88,-148,113,-241v25,-93,37,-194,37,-305v0,-111,-12,-212,-37,-305v-25,-93,-63,-173,-114,-241v-51,-67,-115,-120,-193,-158v-78,-37,-170,-56,-276,-56v-107,0,-199,19,-277,57v-78,37,-143,90,-194,158v-51,67,-89,147,-114,240v-25,93,-38,194,-38,305xm344,735v0,-90,8,-171,25,-242v16,-71,41,-131,74,-182v33,-50,74,-88,124,-115v49,-27,108,-40,177,-40v68,0,127,13,177,40v49,27,91,65,124,116v33,50,57,111,74,182v16,71,24,151,24,241v0,89,-8,169,-25,241v-16,71,-41,132,-74,182v-33,50,-74,88,-124,115v-49,27,-108,40,-176,40v-68,0,-127,-13,-177,-40v-50,-27,-92,-65,-125,-115v-33,-50,-57,-111,-74,-183v-16,-71,-24,-151,-24,-240","w":1482},"\u00d6":{"d":"626,-1616v-67,11,-147,10,-215,0v-8,-70,-8,-136,0,-207v68,-10,149,-11,215,0v11,61,12,146,0,207xm1067,-1616v-68,10,-148,11,-215,0v-12,-68,-16,-133,0,-207v66,-11,148,-10,215,0v8,70,8,138,0,207xm121,735v0,111,13,213,38,306v25,93,64,173,115,240v51,67,115,120,193,159v78,38,170,57,277,57v107,0,199,-19,277,-58v77,-38,142,-91,193,-158v51,-67,88,-148,113,-241v25,-93,37,-194,37,-305v0,-111,-12,-212,-37,-305v-25,-93,-63,-173,-114,-241v-51,-67,-115,-120,-193,-158v-78,-37,-170,-56,-276,-56v-107,0,-199,19,-277,57v-78,37,-143,90,-194,158v-51,67,-89,147,-114,240v-25,93,-38,194,-38,305xm344,735v0,-90,8,-171,25,-242v16,-71,41,-131,74,-182v33,-50,74,-88,124,-115v49,-27,108,-40,177,-40v68,0,127,13,177,40v49,27,91,65,124,116v33,50,57,111,74,182v16,71,24,151,24,241v0,89,-8,169,-25,241v-16,71,-41,132,-74,182v-33,50,-74,88,-124,115v-49,27,-108,40,-176,40v-68,0,-127,-13,-177,-40v-50,-27,-92,-65,-125,-115v-33,-50,-57,-111,-74,-183v-16,-71,-24,-151,-24,-240","w":1482},"\u00d7":{"d":"236,-477r249,-248r-125,-124r-122,-124v34,-51,81,-93,129,-131r247,250r123,-124r125,-124v49,37,92,80,129,129r-248,248r248,248v-34,47,-81,96,-129,127r-246,-246r-251,248v-51,-34,-94,-77,-129,-129"},"\u00d8":{"d":"741,25v-170,0,-291,-49,-387,-127r-73,102v-46,8,-120,8,-166,0r147,-203v-94,-130,-143,-312,-143,-532v0,-342,114,-592,346,-705v78,-38,170,-57,276,-57v162,0,287,44,377,121r70,-97v47,-11,119,-10,166,0r-142,195v99,132,150,316,150,543v0,342,-111,591,-344,703v-78,38,-170,57,-277,57xm366,-976v-41,177,-30,447,31,587r600,-823v-64,-67,-149,-101,-256,-101v-229,0,-329,145,-375,337xm473,-266v67,74,156,111,268,110v229,-3,330,-146,375,-338v44,-185,31,-455,-39,-600","w":1482},"\u00d9":{"d":"348,-1817v85,-13,197,-12,283,0r215,222v-64,11,-152,10,-217,0xm166,600r0,873v33,4,68,6,106,6v37,0,71,-2,103,-6r0,-836v0,-85,6,-157,17,-217v11,-60,28,-109,53,-147v24,-37,56,-65,97,-83v40,-17,89,-26,148,-26v59,0,108,9,148,27v39,17,71,45,96,83v25,37,43,86,54,146v11,60,16,132,16,217r0,836v34,4,69,6,104,6v38,0,73,-2,106,-6r0,-873v0,-98,-9,-186,-28,-264v-18,-78,-48,-144,-90,-197v-41,-53,-95,-94,-162,-122v-67,-28,-148,-42,-244,-42v-95,0,-177,14,-244,42v-67,28,-121,69,-163,122v-41,53,-71,119,-90,197v-18,78,-27,166,-27,264","w":1380},"\u00da":{"d":"766,-1595v-68,10,-151,11,-219,0r217,-222v22,-3,45,-5,70,-7v71,-6,149,-2,211,7xm166,600r0,873v33,4,68,6,106,6v37,0,71,-2,103,-6r0,-836v0,-85,6,-157,17,-217v11,-60,28,-109,53,-147v24,-37,56,-65,97,-83v40,-17,89,-26,148,-26v59,0,108,9,148,27v39,17,71,45,96,83v25,37,43,86,54,146v11,60,16,132,16,217r0,836v34,4,69,6,104,6v38,0,73,-2,106,-6r0,-873v0,-98,-9,-186,-28,-264v-18,-78,-48,-144,-90,-197v-41,-53,-95,-94,-162,-122v-67,-28,-148,-42,-244,-42v-95,0,-177,14,-244,42v-67,28,-121,69,-163,122v-41,53,-71,119,-90,197v-18,78,-27,166,-27,264","w":1380},"\u00db":{"d":"1046,-1595v-63,12,-159,11,-223,0r-133,-125r-133,125v-66,11,-162,12,-227,0r241,-222v70,-11,170,-11,240,0xm166,600r0,873v33,4,68,6,106,6v37,0,71,-2,103,-6r0,-836v0,-85,6,-157,17,-217v11,-60,28,-109,53,-147v24,-37,56,-65,97,-83v40,-17,89,-26,148,-26v59,0,108,9,148,27v39,17,71,45,96,83v25,37,43,86,54,146v11,60,16,132,16,217r0,836v34,4,69,6,104,6v38,0,73,-2,106,-6r0,-873v0,-98,-9,-186,-28,-264v-18,-78,-48,-144,-90,-197v-41,-53,-95,-94,-162,-122v-67,-28,-148,-42,-244,-42v-95,0,-177,14,-244,42v-67,28,-121,69,-163,122v-41,53,-71,119,-90,197v-18,78,-27,166,-27,264","w":1380},"\u00dc":{"d":"577,-1616v-67,11,-147,10,-215,0v-8,-70,-8,-136,0,-207v68,-10,149,-11,215,0v11,61,12,146,0,207xm1018,-1616v-68,10,-148,11,-215,0v-12,-68,-16,-133,0,-207v66,-11,148,-10,215,0v8,70,8,138,0,207xm166,600r0,873v33,4,68,6,106,6v37,0,71,-2,103,-6r0,-836v0,-85,6,-157,17,-217v11,-60,28,-109,53,-147v24,-37,56,-65,97,-83v40,-17,89,-26,148,-26v59,0,108,9,148,27v39,17,71,45,96,83v25,37,43,86,54,146v11,60,16,132,16,217r0,836v34,4,69,6,104,6v38,0,73,-2,106,-6r0,-873v0,-98,-9,-186,-28,-264v-18,-78,-48,-144,-90,-197v-41,-53,-95,-94,-162,-122v-67,-28,-148,-42,-244,-42v-95,0,-177,14,-244,42v-67,28,-121,69,-163,122v-41,53,-71,119,-90,197v-18,78,-27,166,-27,264","w":1380},"\u00dd":{"d":"686,-1595v-68,10,-151,11,-219,0r217,-222v22,-3,45,-5,70,-7v71,-6,149,-2,211,7xm37,1473v18,3,37,5,58,6v20,1,40,2,61,2v18,0,38,-1,59,-2v21,-1,39,-3,55,-6r344,-732r340,732v18,3,36,5,54,6v17,1,36,2,55,2v19,0,39,-1,58,-2v19,-1,37,-3,55,-6r-461,-934r0,-539v-18,-3,-36,-5,-54,-6v-17,-1,-35,-2,-53,-2v-18,0,-36,1,-55,2v-18,1,-34,3,-49,6r0,539","w":1212},"\u00de":{"d":"387,0v-64,9,-146,9,-209,0r0,-1473v64,-7,145,-9,209,0r0,230v201,-20,399,9,518,99v106,80,176,201,176,390v0,391,-291,518,-694,488r0,266xm516,-1067v-60,0,-73,3,-129,8r0,608v127,17,288,11,367,-51v67,-52,110,-130,110,-254v0,-222,-133,-311,-348,-311","w":1189},"\u00df":{"d":"360,0v-60,11,-138,10,-198,0r0,-1010v-2,-310,100,-511,409,-510v186,1,306,72,357,204v32,85,28,208,-6,282v-36,79,-82,138,-127,205v-32,48,-43,126,-5,171v57,68,154,103,216,168v47,50,88,114,86,214v-3,194,-143,301,-359,301v-105,0,-174,-20,-248,-50v5,-59,28,-113,47,-161v113,62,355,84,355,-97v0,-71,-40,-106,-83,-137v-104,-73,-239,-117,-239,-297v0,-102,51,-161,91,-225v41,-66,92,-131,92,-238v0,-109,-68,-174,-181,-174v-82,0,-137,28,-165,83v-28,55,-42,144,-42,265r0,1006","w":1171},"\u00e0":{"d":"98,311v0,59,12,110,36,155v24,44,57,81,98,111v41,29,88,51,141,66v53,14,109,21,168,21v44,0,80,-1,108,-4v27,-2,51,-4,70,-7r0,39v0,81,-21,137,-62,168v-41,31,-100,47,-178,47v-48,0,-93,-4,-134,-11v-41,-7,-82,-17,-122,-30v-26,45,-39,99,-39,162v47,15,98,27,154,35v56,8,110,12,162,12v137,0,241,-31,312,-93v71,-62,106,-161,106,-298r0,-657v-48,-11,-106,-22,-175,-34v-68,-12,-137,-18,-208,-18v-67,0,-127,6,-182,19v-54,12,-100,32,-137,59v-37,27,-66,62,-87,105v-21,42,-31,93,-31,153xm301,315v0,-41,8,-73,23,-96v15,-23,33,-41,56,-54v23,-12,48,-19,75,-22v27,-3,53,-4,77,-4v31,0,64,2,98,6v33,3,63,8,89,15r0,334v-21,3,-47,5,-78,8v-31,3,-58,4,-80,4v-85,0,-149,-16,-194,-48v-44,-31,-66,-79,-66,-143xm190,1477v21,3,41,5,62,6v20,1,42,2,67,2v22,0,44,-1,67,-2v23,-1,44,-3,64,-6r236,-260v-31,-5,-63,-8,-96,-9v-21,0,-40,1,-59,2v-18,1,-35,4,-50,7","w":1058},"\u00e1":{"d":"98,311v0,59,12,110,36,155v24,44,57,81,98,111v41,29,88,51,141,66v53,14,109,21,168,21v44,0,80,-1,108,-4v27,-2,51,-4,70,-7r0,39v0,81,-21,137,-62,168v-41,31,-100,47,-178,47v-48,0,-93,-4,-134,-11v-41,-7,-82,-17,-122,-30v-26,45,-39,99,-39,162v47,15,98,27,154,35v56,8,110,12,162,12v137,0,241,-31,312,-93v71,-62,106,-161,106,-298r0,-657v-48,-11,-106,-22,-175,-34v-68,-12,-137,-18,-208,-18v-67,0,-127,6,-182,19v-54,12,-100,32,-137,59v-37,27,-66,62,-87,105v-21,42,-31,93,-31,153xm301,315v0,-41,8,-73,23,-96v15,-23,33,-41,56,-54v23,-12,48,-19,75,-22v27,-3,53,-4,77,-4v31,0,64,2,98,6v33,3,63,8,89,15r0,334v-21,3,-47,5,-78,8v-31,3,-58,4,-80,4v-85,0,-149,-16,-194,-48v-44,-31,-66,-79,-66,-143xm325,1217r236,260v21,3,42,5,64,6v21,1,44,2,67,2v25,0,47,-1,68,-2v20,-1,40,-3,59,-6r-291,-260v-15,-3,-32,-5,-50,-7v-17,-1,-37,-2,-59,-2v-15,0,-31,1,-46,3v-15,1,-31,3,-48,6","w":1058},"\u00e2":{"d":"98,311v0,59,12,110,36,155v24,44,57,81,98,111v41,29,88,51,141,66v53,14,109,21,168,21v44,0,80,-1,108,-4v27,-2,51,-4,70,-7r0,39v0,81,-21,137,-62,168v-41,31,-100,47,-178,47v-48,0,-93,-4,-134,-11v-41,-7,-82,-17,-122,-30v-26,45,-39,99,-39,162v47,15,98,27,154,35v56,8,110,12,162,12v137,0,241,-31,312,-93v71,-62,106,-161,106,-298r0,-657v-48,-11,-106,-22,-175,-34v-68,-12,-137,-18,-208,-18v-67,0,-127,6,-182,19v-54,12,-100,32,-137,59v-37,27,-66,62,-87,105v-21,42,-31,93,-31,153xm301,315v0,-41,8,-73,23,-96v15,-23,33,-41,56,-54v23,-12,48,-19,75,-22v27,-3,53,-4,77,-4v31,0,64,2,98,6v33,3,63,8,89,15r0,334v-21,3,-47,5,-78,8v-31,3,-58,4,-80,4v-85,0,-149,-16,-194,-48v-44,-31,-66,-79,-66,-143xm170,1217r223,260v18,3,38,5,61,6v22,1,43,2,64,2v15,0,34,-1,55,-2v21,-1,41,-4,60,-8r221,-258v-12,-3,-26,-5,-42,-7v-16,-1,-33,-2,-50,-2v-18,0,-38,1,-59,2v-21,1,-40,4,-58,7r-133,163r-133,-163v-15,-3,-33,-5,-53,-7v-19,-1,-38,-2,-56,-2v-39,1,-73,4,-100,9","w":1058},"\u00e3":{"d":"98,311v0,59,12,110,36,155v24,44,57,81,98,111v41,29,88,51,141,66v53,14,109,21,168,21v44,0,80,-1,108,-4v27,-2,51,-4,70,-7r0,39v0,81,-21,137,-62,168v-41,31,-100,47,-178,47v-48,0,-93,-4,-134,-11v-41,-7,-82,-17,-122,-30v-26,45,-39,99,-39,162v47,15,98,27,154,35v56,8,110,12,162,12v137,0,241,-31,312,-93v71,-62,106,-161,106,-298r0,-657v-48,-11,-106,-22,-175,-34v-68,-12,-137,-18,-208,-18v-67,0,-127,6,-182,19v-54,12,-100,32,-137,59v-37,27,-66,62,-87,105v-21,42,-31,93,-31,153xm301,315v0,-41,8,-73,23,-96v15,-23,33,-41,56,-54v23,-12,48,-19,75,-22v27,-3,53,-4,77,-4v31,0,64,2,98,6v33,3,63,8,89,15r0,334v-21,3,-47,5,-78,8v-31,3,-58,4,-80,4v-85,0,-149,-16,-194,-48v-44,-31,-66,-79,-66,-143xm174,1368v21,27,47,51,80,71v33,19,71,29,116,29v29,0,56,-5,82,-14v26,-9,51,-20,75,-31v24,-11,48,-21,73,-31v25,-9,51,-14,78,-14v23,0,45,4,65,13v19,8,43,25,72,51v30,-37,52,-78,65,-125v-22,-26,-50,-49,-83,-68v-33,-19,-72,-28,-115,-28v-29,0,-56,5,-82,14v-26,9,-51,20,-76,31v-25,11,-49,21,-73,31v-24,9,-49,14,-75,14v-27,0,-51,-5,-70,-15v-19,-9,-42,-26,-69,-49v-15,19,-28,39,-39,59v-11,19,-19,40,-24,62","w":1058},"\u00e4":{"d":"98,311v0,59,12,110,36,155v24,44,57,81,98,111v41,29,88,51,141,66v53,14,109,21,168,21v44,0,80,-1,108,-4v27,-2,51,-4,70,-7r0,39v0,81,-21,137,-62,168v-41,31,-100,47,-178,47v-48,0,-93,-4,-134,-11v-41,-7,-82,-17,-122,-30v-26,45,-39,99,-39,162v47,15,98,27,154,35v56,8,110,12,162,12v137,0,241,-31,312,-93v71,-62,106,-161,106,-298r0,-657v-48,-11,-106,-22,-175,-34v-68,-12,-137,-18,-208,-18v-67,0,-127,6,-182,19v-54,12,-100,32,-137,59v-37,27,-66,62,-87,105v-21,42,-31,93,-31,153xm301,315v0,-41,8,-73,23,-96v15,-23,33,-41,56,-54v23,-12,48,-19,75,-22v27,-3,53,-4,77,-4v31,0,64,2,98,6v33,3,63,8,89,15r0,334v-21,3,-47,5,-78,8v-31,3,-58,4,-80,4v-85,0,-149,-16,-194,-48v-44,-31,-66,-79,-66,-143xm215,1339v0,17,1,34,3,51v1,17,3,34,6,52v17,3,34,5,53,6v18,1,35,2,51,2v15,0,32,-1,51,-2v18,-1,36,-3,54,-6v5,-31,8,-66,8,-103v0,-17,-1,-33,-2,-50v-1,-17,-3,-34,-6,-52v-35,-4,-70,-6,-105,-6v-15,0,-33,0,-52,1v-19,1,-36,2,-52,5v-3,18,-5,35,-7,51v-1,16,-2,33,-2,51xm633,1339v0,17,1,34,2,51v1,17,3,34,6,52v17,3,34,5,53,6v18,1,35,2,50,2v17,0,34,-1,53,-2v18,-1,36,-3,53,-6v4,-35,6,-70,6,-103v0,-34,-2,-68,-6,-102v-35,-4,-70,-6,-104,-6v-15,0,-33,0,-52,1v-19,1,-36,2,-53,5v-5,31,-8,65,-8,102","w":1058},"\u00e5":{"d":"541,-1200v-128,0,-221,-90,-221,-219v0,-129,93,-219,221,-219v129,0,221,89,221,219v0,129,-93,219,-221,219xm441,-1419v0,68,33,114,100,114v67,0,102,-46,102,-114v0,-68,-35,-115,-102,-115v-67,0,-100,46,-100,115xm98,311v0,59,12,110,36,155v24,44,57,81,98,111v41,29,88,51,141,66v53,14,109,21,168,21v44,0,80,-1,108,-4v27,-2,51,-4,70,-7r0,39v0,81,-21,137,-62,168v-41,31,-100,47,-178,47v-48,0,-93,-4,-134,-11v-41,-7,-82,-17,-122,-30v-26,45,-39,99,-39,162v47,15,98,27,154,35v56,8,110,12,162,12v137,0,241,-31,312,-93v71,-62,106,-161,106,-298r0,-657v-48,-11,-106,-22,-175,-34v-68,-12,-137,-18,-208,-18v-67,0,-127,6,-182,19v-54,12,-100,32,-137,59v-37,27,-66,62,-87,105v-21,42,-31,93,-31,153xm301,315v0,-41,8,-73,23,-96v15,-23,33,-41,56,-54v23,-12,48,-19,75,-22v27,-3,53,-4,77,-4v31,0,64,2,98,6v33,3,63,8,89,15r0,334v-21,3,-47,5,-78,8v-31,3,-58,4,-80,4v-85,0,-149,-16,-194,-48v-44,-31,-66,-79,-66,-143","w":1058},"\u00e6":{"d":"868,-76v-88,54,-227,103,-372,101v-243,-2,-406,-95,-406,-336v0,-190,122,-283,274,-327v99,-29,237,-23,345,-11r0,-43v0,-162,-78,-213,-236,-215v-96,-1,-183,17,-256,41v-26,-45,-39,-99,-39,-162v87,-29,204,-47,316,-47v173,1,272,57,344,164v72,-93,183,-165,344,-164v148,0,252,59,324,139v88,99,128,276,102,459r-703,0v0,239,106,334,340,334v107,0,186,-21,268,-52v18,40,35,106,37,162v-195,83,-536,82,-682,-43xm561,-498v-157,1,-262,43,-266,189v-5,181,192,192,353,159v45,-10,83,-26,116,-49v-43,-70,-56,-180,-59,-288v-21,-3,-44,-5,-70,-7v-26,-2,-51,-4,-74,-4xm907,-629r512,0v-1,-126,-46,-219,-133,-261v-30,-15,-65,-23,-106,-23v-179,0,-255,115,-273,284","w":1718},"\u00e7":{"d":"674,291v0,-97,-166,-77,-248,-60v-3,-1,-7,-5,-12,-10r78,-209v-255,-46,-388,-240,-388,-536v0,-255,108,-425,288,-508v135,-62,368,-52,501,2v0,53,-16,121,-35,160v-68,-21,-139,-35,-227,-35v-219,-2,-320,159,-320,381v0,243,114,381,334,381v89,0,150,-12,219,-37v21,39,41,101,43,160v-88,30,-176,45,-293,45r-36,92v140,-16,251,48,251,172v-2,149,-135,205,-297,205v-52,-1,-113,-6,-155,-25v4,-44,8,-88,29,-119v45,15,87,23,126,23v71,0,142,-21,142,-82","w":978},"\u00e8":{"d":"102,518v0,78,10,151,30,219v20,67,51,126,92,176v41,49,92,89,154,118v62,29,135,44,220,44v73,0,136,-12,191,-37v54,-25,100,-59,137,-102v37,-43,65,-94,84,-153v19,-59,28,-124,28,-193v0,-19,-1,-40,-2,-61v-1,-21,-3,-39,-4,-54r-715,0v3,-115,32,-199,89,-252v57,-53,140,-80,251,-80v97,0,189,17,277,52v11,-21,20,-46,27,-75v7,-29,11,-58,12,-87v-45,-19,-95,-34,-149,-44v-54,-9,-114,-14,-179,-14v-95,0,-177,13,-246,40v-68,27,-124,64,-169,113v-44,49,-76,106,-97,172v-21,66,-31,139,-31,218xm319,627r519,0v0,38,-5,74,-16,109v-10,35,-25,65,-45,91v-20,26,-45,47,-76,63v-31,15,-67,23,-109,23v-83,0,-147,-25,-192,-76v-45,-50,-72,-120,-81,-210xm272,1477v21,3,41,5,62,6v20,1,42,2,67,2v22,0,44,-1,67,-2v23,-1,44,-3,64,-6r236,-260v-31,-5,-63,-8,-96,-9v-21,0,-40,1,-59,2v-18,1,-35,4,-50,7","w":1140},"\u00e9":{"d":"102,518v0,78,10,151,30,219v20,67,51,126,92,176v41,49,92,89,154,118v62,29,135,44,220,44v73,0,136,-12,191,-37v54,-25,100,-59,137,-102v37,-43,65,-94,84,-153v19,-59,28,-124,28,-193v0,-19,-1,-40,-2,-61v-1,-21,-3,-39,-4,-54r-715,0v3,-115,32,-199,89,-252v57,-53,140,-80,251,-80v97,0,189,17,277,52v11,-21,20,-46,27,-75v7,-29,11,-58,12,-87v-45,-19,-95,-34,-149,-44v-54,-9,-114,-14,-179,-14v-95,0,-177,13,-246,40v-68,27,-124,64,-169,113v-44,49,-76,106,-97,172v-21,66,-31,139,-31,218xm319,627r519,0v0,38,-5,74,-16,109v-10,35,-25,65,-45,91v-20,26,-45,47,-76,63v-31,15,-67,23,-109,23v-83,0,-147,-25,-192,-76v-45,-50,-72,-120,-81,-210xm413,1217r236,260v21,3,42,5,64,6v21,1,44,2,67,2v25,0,47,-1,68,-2v20,-1,40,-3,59,-6r-291,-260v-15,-3,-32,-5,-50,-7v-17,-1,-37,-2,-59,-2v-15,0,-31,1,-46,3v-15,1,-31,3,-48,6","w":1140},"\u00ea":{"d":"102,518v0,78,10,151,30,219v20,67,51,126,92,176v41,49,92,89,154,118v62,29,135,44,220,44v73,0,136,-12,191,-37v54,-25,100,-59,137,-102v37,-43,65,-94,84,-153v19,-59,28,-124,28,-193v0,-19,-1,-40,-2,-61v-1,-21,-3,-39,-4,-54r-715,0v3,-115,32,-199,89,-252v57,-53,140,-80,251,-80v97,0,189,17,277,52v11,-21,20,-46,27,-75v7,-29,11,-58,12,-87v-45,-19,-95,-34,-149,-44v-54,-9,-114,-14,-179,-14v-95,0,-177,13,-246,40v-68,27,-124,64,-169,113v-44,49,-76,106,-97,172v-21,66,-31,139,-31,218xm319,627r519,0v0,38,-5,74,-16,109v-10,35,-25,65,-45,91v-20,26,-45,47,-76,63v-31,15,-67,23,-109,23v-83,0,-147,-25,-192,-76v-45,-50,-72,-120,-81,-210xm244,1217r223,260v18,3,38,5,61,6v22,1,43,2,64,2v15,0,34,-1,55,-2v21,-1,41,-4,60,-8r221,-258v-12,-3,-26,-5,-42,-7v-16,-1,-33,-2,-50,-2v-18,0,-38,1,-59,2v-21,1,-40,4,-58,7r-133,163r-133,-163v-15,-3,-33,-5,-53,-7v-19,-1,-38,-2,-56,-2v-39,1,-73,4,-100,9","w":1140},"\u00eb":{"d":"102,518v0,78,10,151,30,219v20,67,51,126,92,176v41,49,92,89,154,118v62,29,135,44,220,44v73,0,136,-12,191,-37v54,-25,100,-59,137,-102v37,-43,65,-94,84,-153v19,-59,28,-124,28,-193v0,-19,-1,-40,-2,-61v-1,-21,-3,-39,-4,-54r-715,0v3,-115,32,-199,89,-252v57,-53,140,-80,251,-80v97,0,189,17,277,52v11,-21,20,-46,27,-75v7,-29,11,-58,12,-87v-45,-19,-95,-34,-149,-44v-54,-9,-114,-14,-179,-14v-95,0,-177,13,-246,40v-68,27,-124,64,-169,113v-44,49,-76,106,-97,172v-21,66,-31,139,-31,218xm319,627r519,0v0,38,-5,74,-16,109v-10,35,-25,65,-45,91v-20,26,-45,47,-76,63v-31,15,-67,23,-109,23v-83,0,-147,-25,-192,-76v-45,-50,-72,-120,-81,-210xm256,1339v0,17,1,34,3,51v1,17,3,34,6,52v17,3,34,5,53,6v18,1,35,2,51,2v15,0,32,-1,51,-2v18,-1,36,-3,54,-6v5,-31,8,-66,8,-103v0,-17,-1,-33,-2,-50v-1,-17,-3,-34,-6,-52v-35,-4,-70,-6,-105,-6v-15,0,-33,0,-52,1v-19,1,-36,2,-52,5v-3,18,-5,35,-7,51v-1,16,-2,33,-2,51xm674,1339v0,17,1,34,2,51v1,17,3,34,6,52v17,3,34,5,53,6v18,1,35,2,50,2v17,0,34,-1,53,-2v18,-1,36,-3,53,-6v4,-35,6,-70,6,-103v0,-34,-2,-68,-6,-102v-35,-4,-70,-6,-104,-6v-15,0,-33,0,-52,1v-19,1,-36,2,-53,5v-5,31,-8,65,-8,102","w":1140},"\u00ec":{"d":"424,0v-60,10,-138,10,-199,0r0,-891r-133,0v-11,-45,-11,-114,0,-160r332,0r0,1051xm-29,1477v21,3,41,5,62,6v20,1,42,2,67,2v22,0,44,-1,67,-2v23,-1,44,-3,64,-6r236,-260v-31,-5,-63,-8,-96,-9v-21,0,-40,1,-59,2v-18,1,-35,4,-50,7","w":589},"\u00ed":{"d":"424,0v-60,10,-138,10,-199,0r0,-891r-133,0v-11,-45,-11,-114,0,-160r332,0r0,1051xm102,1217r236,260v21,3,42,5,64,6v21,1,44,2,67,2v25,0,47,-1,68,-2v20,-1,40,-3,59,-6r-291,-260v-15,-3,-32,-5,-50,-7v-17,-1,-37,-2,-59,-2v-15,0,-31,1,-46,3v-15,1,-31,3,-48,6","w":589},"\u00ee":{"d":"424,0v-60,10,-138,10,-199,0r0,-891r-133,0v-11,-45,-11,-114,0,-160r332,0r0,1051xm-47,1217r223,260v18,3,38,5,61,6v22,1,43,2,64,2v15,0,34,-1,55,-2v21,-1,41,-4,60,-8r221,-258v-12,-3,-26,-5,-42,-7v-16,-1,-33,-2,-50,-2v-18,0,-38,1,-59,2v-21,1,-40,4,-58,7r-133,163r-133,-163v-15,-3,-33,-5,-53,-7v-19,-1,-38,-2,-56,-2v-39,1,-73,4,-100,9","w":589},"\u00ef":{"d":"424,0v-60,10,-138,10,-199,0r0,-891r-133,0v-11,-45,-11,-114,0,-160r332,0r0,1051xm-25,1339v0,17,1,34,3,51v1,17,3,34,6,52v17,3,34,5,53,6v18,1,35,2,51,2v15,0,32,-1,51,-2v18,-1,36,-3,54,-6v5,-31,8,-66,8,-103v0,-17,-1,-33,-2,-50v-1,-17,-3,-34,-6,-52v-35,-4,-70,-6,-105,-6v-15,0,-33,0,-52,1v-19,1,-36,2,-52,5v-3,18,-5,35,-7,51v-1,16,-2,33,-2,51xm393,1339v0,17,1,34,2,51v1,17,3,34,6,52v17,3,34,5,53,6v18,1,35,2,50,2v17,0,34,-1,53,-2v18,-1,36,-3,53,-6v4,-35,6,-70,6,-103v0,-34,-2,-68,-6,-102v-35,-4,-70,-6,-104,-6v-15,0,-33,0,-52,1v-19,1,-36,2,-53,5v-5,31,-8,65,-8,102","w":589},"\u00f0":{"d":"801,-1313v176,160,282,424,282,746v0,271,-86,464,-272,550v-116,54,-315,54,-434,4v-174,-73,-273,-231,-273,-472v0,-234,96,-398,261,-473v98,-44,239,-54,349,-14v49,17,90,42,122,73v-53,-136,-97,-229,-195,-309r-201,125v-31,-28,-56,-70,-71,-111r143,-90v-61,-31,-129,-41,-207,-53v-17,-48,-10,-126,8,-170v150,8,272,50,373,110r180,-114v33,25,59,72,78,110xm594,-834v-196,0,-278,136,-277,349v1,208,76,352,277,352v201,0,274,-144,274,-352v0,-217,-69,-349,-274,-349","w":1189},"\u00f1":{"d":"164,0r0,1051v15,3,30,5,44,6v14,1,29,2,44,2v15,0,29,-1,42,-2v13,-1,27,-3,42,-6v4,-21,8,-49,12,-84v4,-35,6,-63,6,-86v13,23,31,47,52,70v21,23,46,43,73,62v27,18,59,33,95,45v35,11,74,17,116,17v120,0,209,-35,266,-104v57,-69,86,-170,86,-305r0,-666v-15,-3,-32,-5,-51,-6v-19,-1,-36,-2,-51,-2v-15,0,-32,1,-51,2v-18,1,-34,3,-49,6r0,610v0,97,-15,168,-45,214v-30,46,-78,69,-144,69v-38,0,-74,-7,-108,-21v-34,-13,-64,-34,-90,-63v-26,-29,-47,-66,-63,-112v-15,-45,-23,-100,-23,-165r0,-532v-15,-3,-32,-5,-51,-6v-18,-1,-35,-2,-50,-2v-15,0,-32,1,-51,2v-19,1,-36,3,-51,6xm242,1368v21,27,47,51,80,71v33,19,71,29,116,29v29,0,56,-5,82,-14v26,-9,51,-20,75,-31v24,-11,48,-21,73,-31v25,-9,51,-14,78,-14v23,0,45,4,65,13v19,8,43,25,72,51v30,-37,52,-78,65,-125v-22,-26,-50,-49,-83,-68v-33,-19,-72,-28,-115,-28v-29,0,-56,5,-82,14v-26,9,-51,20,-76,31v-25,11,-49,21,-73,31v-24,9,-49,14,-75,14v-27,0,-51,-5,-70,-15v-19,-9,-42,-26,-69,-49v-15,19,-28,39,-39,59v-11,19,-19,40,-24,62","w":1183},"\u00f2":{"d":"100,524v0,78,10,151,30,218v20,67,51,125,92,174v41,49,92,87,153,116v61,29,133,43,215,43v82,0,154,-14,215,-43v61,-29,113,-68,154,-117v41,-49,71,-107,91,-174v19,-67,29,-139,29,-217v0,-78,-10,-150,-30,-217v-19,-67,-50,-125,-91,-174v-41,-49,-92,-88,-153,-116v-61,-28,-133,-42,-215,-42v-82,0,-154,14,-215,42v-61,28,-113,67,-154,116v-41,49,-71,107,-91,174v-20,67,-30,139,-30,217xm315,524v0,-121,22,-216,67,-285v45,-68,114,-102,208,-102v94,0,164,34,209,103v45,68,67,163,67,284v0,121,-23,216,-68,284v-45,67,-114,101,-208,101v-94,0,-163,-34,-208,-102v-45,-67,-67,-162,-67,-283xm260,1477v21,3,41,5,62,6v20,1,42,2,67,2v22,0,44,-1,67,-2v23,-1,44,-3,64,-6r236,-260v-31,-5,-63,-8,-96,-9v-21,0,-40,1,-59,2v-18,1,-35,4,-50,7","w":1181},"\u00f3":{"d":"100,524v0,78,10,151,30,218v20,67,51,125,92,174v41,49,92,87,153,116v61,29,133,43,215,43v82,0,154,-14,215,-43v61,-29,113,-68,154,-117v41,-49,71,-107,91,-174v19,-67,29,-139,29,-217v0,-78,-10,-150,-30,-217v-19,-67,-50,-125,-91,-174v-41,-49,-92,-88,-153,-116v-61,-28,-133,-42,-215,-42v-82,0,-154,14,-215,42v-61,28,-113,67,-154,116v-41,49,-71,107,-91,174v-20,67,-30,139,-30,217xm315,524v0,-121,22,-216,67,-285v45,-68,114,-102,208,-102v94,0,164,34,209,103v45,68,67,163,67,284v0,121,-23,216,-68,284v-45,67,-114,101,-208,101v-94,0,-163,-34,-208,-102v-45,-67,-67,-162,-67,-283xm399,1217r236,260v21,3,42,5,64,6v21,1,44,2,67,2v25,0,47,-1,68,-2v20,-1,40,-3,59,-6r-291,-260v-15,-3,-32,-5,-50,-7v-17,-1,-37,-2,-59,-2v-15,0,-31,1,-46,3v-15,1,-31,3,-48,6","w":1181},"\u00f4":{"d":"100,524v0,78,10,151,30,218v20,67,51,125,92,174v41,49,92,87,153,116v61,29,133,43,215,43v82,0,154,-14,215,-43v61,-29,113,-68,154,-117v41,-49,71,-107,91,-174v19,-67,29,-139,29,-217v0,-78,-10,-150,-30,-217v-19,-67,-50,-125,-91,-174v-41,-49,-92,-88,-153,-116v-61,-28,-133,-42,-215,-42v-82,0,-154,14,-215,42v-61,28,-113,67,-154,116v-41,49,-71,107,-91,174v-20,67,-30,139,-30,217xm315,524v0,-121,22,-216,67,-285v45,-68,114,-102,208,-102v94,0,164,34,209,103v45,68,67,163,67,284v0,121,-23,216,-68,284v-45,67,-114,101,-208,101v-94,0,-163,-34,-208,-102v-45,-67,-67,-162,-67,-283xm246,1217r223,260v18,3,38,5,61,6v22,1,43,2,64,2v15,0,34,-1,55,-2v21,-1,41,-4,60,-8r221,-258v-12,-3,-26,-5,-42,-7v-16,-1,-33,-2,-50,-2v-18,0,-38,1,-59,2v-21,1,-40,4,-58,7r-133,163r-133,-163v-15,-3,-33,-5,-53,-7v-19,-1,-38,-2,-56,-2v-39,1,-73,4,-100,9","w":1181},"\u00f5":{"d":"100,524v0,78,10,151,30,218v20,67,51,125,92,174v41,49,92,87,153,116v61,29,133,43,215,43v82,0,154,-14,215,-43v61,-29,113,-68,154,-117v41,-49,71,-107,91,-174v19,-67,29,-139,29,-217v0,-78,-10,-150,-30,-217v-19,-67,-50,-125,-91,-174v-41,-49,-92,-88,-153,-116v-61,-28,-133,-42,-215,-42v-82,0,-154,14,-215,42v-61,28,-113,67,-154,116v-41,49,-71,107,-91,174v-20,67,-30,139,-30,217xm315,524v0,-121,22,-216,67,-285v45,-68,114,-102,208,-102v94,0,164,34,209,103v45,68,67,163,67,284v0,121,-23,216,-68,284v-45,67,-114,101,-208,101v-94,0,-163,-34,-208,-102v-45,-67,-67,-162,-67,-283xm236,1368v21,27,47,51,80,71v33,19,71,29,116,29v29,0,56,-5,82,-14v26,-9,51,-20,75,-31v24,-11,48,-21,73,-31v25,-9,51,-14,78,-14v23,0,45,4,65,13v19,8,43,25,72,51v30,-37,52,-78,65,-125v-22,-26,-50,-49,-83,-68v-33,-19,-72,-28,-115,-28v-29,0,-56,5,-82,14v-26,9,-51,20,-76,31v-25,11,-49,21,-73,31v-24,9,-49,14,-75,14v-27,0,-51,-5,-70,-15v-19,-9,-42,-26,-69,-49v-15,19,-28,39,-39,59v-11,19,-19,40,-24,62","w":1181},"\u00f6":{"d":"100,524v0,78,10,151,30,218v20,67,51,125,92,174v41,49,92,87,153,116v61,29,133,43,215,43v82,0,154,-14,215,-43v61,-29,113,-68,154,-117v41,-49,71,-107,91,-174v19,-67,29,-139,29,-217v0,-78,-10,-150,-30,-217v-19,-67,-50,-125,-91,-174v-41,-49,-92,-88,-153,-116v-61,-28,-133,-42,-215,-42v-82,0,-154,14,-215,42v-61,28,-113,67,-154,116v-41,49,-71,107,-91,174v-20,67,-30,139,-30,217xm315,524v0,-121,22,-216,67,-285v45,-68,114,-102,208,-102v94,0,164,34,209,103v45,68,67,163,67,284v0,121,-23,216,-68,284v-45,67,-114,101,-208,101v-94,0,-163,-34,-208,-102v-45,-67,-67,-162,-67,-283xm266,1339v0,17,1,34,3,51v1,17,3,34,6,52v17,3,34,5,53,6v18,1,35,2,51,2v15,0,32,-1,51,-2v18,-1,36,-3,54,-6v5,-31,8,-66,8,-103v0,-17,-1,-33,-2,-50v-1,-17,-3,-34,-6,-52v-35,-4,-70,-6,-105,-6v-15,0,-33,0,-52,1v-19,1,-36,2,-52,5v-3,18,-5,35,-7,51v-1,16,-2,33,-2,51xm684,1339v0,17,1,34,2,51v1,17,3,34,6,52v17,3,34,5,53,6v18,1,35,2,50,2v17,0,34,-1,53,-2v18,-1,36,-3,53,-6v4,-35,6,-70,6,-103v0,-34,-2,-68,-6,-102v-35,-4,-70,-6,-104,-6v-15,0,-33,0,-52,1v-19,1,-36,2,-53,5v-5,31,-8,65,-8,102","w":1181},"\u00f7":{"d":"180,-629v-9,-53,-8,-132,0,-186r869,0v10,54,11,132,0,186r-869,0xm608,-215v-77,0,-141,-64,-141,-141v0,-74,65,-142,141,-142v74,0,142,67,142,142v0,76,-67,141,-142,141xm608,-956v-77,0,-141,-63,-141,-140v0,-77,64,-141,141,-141v74,0,142,65,142,141v0,76,-67,140,-142,140"},"\u00f8":{"d":"225,-133v-78,-93,-121,-227,-121,-391v0,-251,97,-427,272,-508v61,-29,132,-43,214,-43v128,0,225,39,299,96r51,-63v38,-11,112,-12,152,-2r-121,151v67,93,104,215,104,369v0,251,-96,427,-271,507v-146,67,-376,53,-493,-36r-39,51v-41,11,-111,10,-151,2xm313,-524v0,94,13,171,39,231r424,-543v-47,-49,-109,-73,-186,-73v-94,0,-164,33,-209,101v-45,68,-68,163,-68,284xm422,-193v42,37,98,56,168,56v94,0,162,-36,210,-103v73,-102,88,-338,40,-485","w":1181},"\u00f9":{"d":"152,467r0,584v15,3,32,5,51,6v19,1,35,2,49,2v15,0,33,-1,52,-2v19,-1,35,-3,50,-6r0,-576v0,-65,6,-120,19,-163v12,-43,30,-76,55,-101v25,-25,55,-42,90,-52v35,-9,76,-14,123,-14v69,0,129,8,178,23r0,883v15,3,32,5,51,6v18,1,35,2,50,2v15,0,32,-1,50,-2v18,-1,35,-3,50,-6r0,-1018v-48,-13,-105,-26,-171,-39v-66,-13,-135,-19,-206,-19v-67,0,-130,6,-189,18v-59,11,-112,35,-157,71v-45,35,-81,85,-107,149v-25,64,-38,149,-38,254xm264,1477v21,3,41,5,62,6v20,1,42,2,67,2v22,0,44,-1,67,-2v23,-1,44,-3,64,-6r236,-260v-31,-5,-63,-8,-96,-9v-21,0,-40,1,-59,2v-18,1,-35,4,-50,7","w":1175},"\u00fa":{"d":"152,467r0,584v15,3,32,5,51,6v19,1,35,2,49,2v15,0,33,-1,52,-2v19,-1,35,-3,50,-6r0,-576v0,-65,6,-120,19,-163v12,-43,30,-76,55,-101v25,-25,55,-42,90,-52v35,-9,76,-14,123,-14v69,0,129,8,178,23r0,883v15,3,32,5,51,6v18,1,35,2,50,2v15,0,32,-1,50,-2v18,-1,35,-3,50,-6r0,-1018v-48,-13,-105,-26,-171,-39v-66,-13,-135,-19,-206,-19v-67,0,-130,6,-189,18v-59,11,-112,35,-157,71v-45,35,-81,85,-107,149v-25,64,-38,149,-38,254xm438,1217r236,260v21,3,42,5,64,6v21,1,44,2,67,2v25,0,47,-1,68,-2v20,-1,40,-3,59,-6r-291,-260v-15,-3,-32,-5,-50,-7v-17,-1,-37,-2,-59,-2v-15,0,-31,1,-46,3v-15,1,-31,3,-48,6","w":1175},"\u00fb":{"d":"152,467r0,584v15,3,32,5,51,6v19,1,35,2,49,2v15,0,33,-1,52,-2v19,-1,35,-3,50,-6r0,-576v0,-65,6,-120,19,-163v12,-43,30,-76,55,-101v25,-25,55,-42,90,-52v35,-9,76,-14,123,-14v69,0,129,8,178,23r0,883v15,3,32,5,51,6v18,1,35,2,50,2v15,0,32,-1,50,-2v18,-1,35,-3,50,-6r0,-1018v-48,-13,-105,-26,-171,-39v-66,-13,-135,-19,-206,-19v-67,0,-130,6,-189,18v-59,11,-112,35,-157,71v-45,35,-81,85,-107,149v-25,64,-38,149,-38,254xm244,1217r223,260v18,3,38,5,61,6v22,1,43,2,64,2v15,0,34,-1,55,-2v21,-1,41,-4,60,-8r221,-258v-12,-3,-26,-5,-42,-7v-16,-1,-33,-2,-50,-2v-18,0,-38,1,-59,2v-21,1,-40,4,-58,7r-133,163r-133,-163v-15,-3,-33,-5,-53,-7v-19,-1,-38,-2,-56,-2v-39,1,-73,4,-100,9","w":1175},"\u00fc":{"d":"152,467r0,584v15,3,32,5,51,6v19,1,35,2,49,2v15,0,33,-1,52,-2v19,-1,35,-3,50,-6r0,-576v0,-65,6,-120,19,-163v12,-43,30,-76,55,-101v25,-25,55,-42,90,-52v35,-9,76,-14,123,-14v69,0,129,8,178,23r0,883v15,3,32,5,51,6v18,1,35,2,50,2v15,0,32,-1,50,-2v18,-1,35,-3,50,-6r0,-1018v-48,-13,-105,-26,-171,-39v-66,-13,-135,-19,-206,-19v-67,0,-130,6,-189,18v-59,11,-112,35,-157,71v-45,35,-81,85,-107,149v-25,64,-38,149,-38,254xm276,1339v0,17,1,34,3,51v1,17,3,34,6,52v17,3,34,5,53,6v18,1,35,2,51,2v15,0,32,-1,51,-2v18,-1,36,-3,54,-6v5,-31,8,-66,8,-103v0,-17,-1,-33,-2,-50v-1,-17,-3,-34,-6,-52v-35,-4,-70,-6,-105,-6v-15,0,-33,0,-52,1v-19,1,-36,2,-52,5v-3,18,-5,35,-7,51v-1,16,-2,33,-2,51xm694,1339v0,17,1,34,2,51v1,17,3,34,6,52v17,3,34,5,53,6v18,1,35,2,50,2v17,0,34,-1,53,-2v18,-1,36,-3,53,-6v4,-35,6,-70,6,-103v0,-34,-2,-68,-6,-102v-35,-4,-70,-6,-104,-6v-15,0,-33,0,-52,1v-19,1,-36,2,-53,5v-5,31,-8,65,-8,102","w":1175},"\u00fd":{"d":"27,1051v18,3,37,4,56,5v19,1,36,1,52,1v18,0,38,-0,60,-1v21,-1,40,-2,55,-5r291,-977r301,977v29,4,62,6,100,6v15,0,33,-0,52,-1v19,-1,38,-2,57,-5r-408,-1264v-19,-56,-39,-103,-60,-142v-20,-38,-43,-69,-69,-92v-26,-23,-55,-39,-87,-49v-32,-9,-69,-14,-112,-14v-31,0,-62,2,-93,7v-31,5,-58,11,-81,18v0,31,3,59,9,84v5,24,13,48,24,73v12,-4,29,-8,50,-13v21,-5,44,-7,69,-7v18,0,35,2,51,5v15,3,30,10,44,21v13,10,26,25,37,44v11,19,23,44,34,77r63,199v-11,0,-22,-0,-34,-1v-11,-1,-22,-1,-33,-1v-13,0,-28,0,-43,1v-15,1,-28,2,-37,3xm360,1217r236,260v21,3,42,5,64,6v21,1,44,2,67,2v25,0,47,-1,68,-2v20,-1,40,-3,59,-6r-291,-260v-15,-3,-32,-5,-50,-7v-17,-1,-37,-2,-59,-2v-15,0,-31,1,-46,3v-15,1,-31,3,-48,6","w":1079},"\u00fe":{"d":"362,483v-62,9,-140,8,-202,0r0,-1984v62,-8,141,-9,202,0r0,583v58,-83,163,-160,312,-157v217,5,339,117,394,291v21,66,32,143,32,233v2,357,-205,579,-563,576v-58,0,-129,-13,-175,-25r0,483xm362,-172v85,33,229,44,322,6v133,-54,201,-186,201,-377v0,-108,-21,-193,-59,-258v-51,-88,-182,-121,-296,-79v-105,39,-168,136,-168,282r0,426","w":1208},"\u00ff":{"d":"27,1051v18,3,37,4,56,5v19,1,36,1,52,1v18,0,38,-0,60,-1v21,-1,40,-2,55,-5r291,-977r301,977v29,4,62,6,100,6v15,0,33,-0,52,-1v19,-1,38,-2,57,-5r-408,-1264v-19,-56,-39,-103,-60,-142v-20,-38,-43,-69,-69,-92v-26,-23,-55,-39,-87,-49v-32,-9,-69,-14,-112,-14v-31,0,-62,2,-93,7v-31,5,-58,11,-81,18v0,31,3,59,9,84v5,24,13,48,24,73v12,-4,29,-8,50,-13v21,-5,44,-7,69,-7v18,0,35,2,51,5v15,3,30,10,44,21v13,10,26,25,37,44v11,19,23,44,34,77r63,199v-11,0,-22,-0,-34,-1v-11,-1,-22,-1,-33,-1v-13,0,-28,0,-43,1v-15,1,-28,2,-37,3xm219,1339v0,17,1,34,3,51v1,17,3,34,6,52v17,3,34,5,53,6v18,1,35,2,51,2v15,0,32,-1,51,-2v18,-1,36,-3,54,-6v5,-31,8,-66,8,-103v0,-17,-1,-33,-2,-50v-1,-17,-3,-34,-6,-52v-35,-4,-70,-6,-105,-6v-15,0,-33,0,-52,1v-19,1,-36,2,-52,5v-3,18,-5,35,-7,51v-1,16,-2,33,-2,51xm637,1339v0,17,1,34,2,51v1,17,3,34,6,52v17,3,34,5,53,6v18,1,35,2,50,2v17,0,34,-1,53,-2v18,-1,36,-3,53,-6v4,-35,6,-70,6,-103v0,-34,-2,-68,-6,-102v-35,-4,-70,-6,-104,-6v-15,0,-33,0,-52,1v-19,1,-36,2,-53,5v-5,31,-8,65,-8,102","w":1079},"\u0152":{"d":"1008,0v-67,15,-180,25,-260,25v-339,-3,-515,-189,-595,-455v-53,-181,-53,-429,1,-610v55,-184,159,-323,320,-400v80,-38,173,-57,280,-57v81,0,178,6,243,24r785,0v11,54,10,129,0,183r-600,0r0,422r479,0v11,54,10,128,0,182r-479,0r0,504r616,0v11,54,10,128,0,182r-790,0xm973,-1288v-118,-30,-294,-41,-397,15v-165,89,-239,283,-240,538v0,257,68,451,232,539v51,27,111,40,180,40v89,0,160,-6,225,-28r0,-1104","w":1892},"\u0153":{"d":"969,-195v-74,128,-183,220,-375,220v-253,0,-394,-137,-457,-332v-42,-130,-41,-304,0,-435v42,-135,125,-233,245,-290v61,-29,131,-43,212,-43v187,0,304,89,379,211v67,-123,189,-212,373,-211v223,2,347,127,405,297v31,89,36,200,21,303r-699,0v5,226,110,331,336,332v107,0,186,-21,268,-52v18,40,37,106,39,162v-94,39,-193,58,-325,58v-209,1,-348,-83,-422,-220xm383,-808v-91,123,-91,444,0,568v49,67,117,103,211,103v94,0,162,-36,212,-103v92,-124,93,-445,0,-568v-50,-66,-118,-101,-212,-101v-94,0,-162,35,-211,101xm1583,-627v-3,-162,-73,-286,-240,-284v-171,2,-251,119,-268,284r508,0","w":1882},"\u0178":{"d":"495,-1616v-67,11,-147,10,-215,0v-8,-70,-8,-136,0,-207v68,-10,149,-11,215,0v11,61,12,146,0,207xm936,-1616v-68,10,-148,11,-215,0v-12,-68,-16,-133,0,-207v66,-11,148,-10,215,0v8,70,8,138,0,207xm37,1473v18,3,37,5,58,6v20,1,40,2,61,2v18,0,38,-1,59,-2v21,-1,39,-3,55,-6r344,-732r340,732v18,3,36,5,54,6v17,1,36,2,55,2v19,0,39,-1,58,-2v19,-1,37,-3,55,-6r-461,-934r0,-539v-18,-3,-36,-5,-54,-6v-17,-1,-35,-2,-53,-2v-18,0,-36,1,-55,2v-18,1,-34,3,-49,6r0,539","w":1212},"\u02c6":{"d":"852,-1217v-59,13,-147,11,-209,0r-133,-163r-133,163v-60,11,-153,12,-209,0r223,-260v73,-10,168,-12,240,2","w":1019},"\u02dc":{"d":"223,-1247v-28,-36,-51,-72,-63,-121v40,-52,104,-101,196,-100v125,2,186,90,308,90v68,0,89,-23,137,-64v30,37,52,78,65,125v-42,48,-108,97,-198,96v-124,-2,-186,-90,-306,-90v-71,0,-90,26,-139,64","w":1024},"\u2013":{"d":"0,-481v-11,-57,-10,-130,0,-187r1024,0v11,56,11,131,0,187r-1024,0","w":1024},"\u2014":{"d":"0,-481v-11,-57,-10,-130,0,-187r2048,0v11,56,11,131,0,187r-2048,0","w":2048},"\u2018":{"d":"424,-1014v-60,11,-134,11,-195,0r-127,-456v62,-10,140,-13,201,0","w":528},"\u2019":{"d":"102,-1016r121,-457v63,-11,140,-10,203,0r-127,457v-60,11,-137,12,-197,0","w":528},"\u201a":{"d":"102,231r121,-456v63,-13,140,-14,203,0r-127,456v-63,9,-135,10,-197,0","w":528},"\u201c":{"d":"102,1470v17,3,34,5,53,7v18,1,35,2,50,2v15,0,32,-1,49,-2v17,-1,33,-4,49,-7r121,-456v-15,-3,-31,-5,-48,-6v-16,-1,-32,-2,-48,-2v-34,0,-67,3,-99,8xm501,1470v17,3,34,5,53,7v18,1,35,2,50,2v15,0,32,-1,49,-2v17,-1,33,-4,49,-7r121,-456v-15,-3,-31,-5,-48,-6v-16,-1,-32,-2,-48,-2v-34,0,-67,3,-99,8","w":927},"\u201d":{"d":"102,1016r121,457v17,3,34,5,51,6v17,1,33,2,48,2v17,0,34,-1,52,-2v18,-1,35,-3,52,-6r-127,-457v-18,-4,-36,-6,-53,-7v-17,-1,-32,-1,-47,-1v-17,0,-33,0,-49,1v-15,1,-31,3,-48,7xm501,1016r121,457v17,3,34,5,51,6v17,1,33,2,48,2v17,0,34,-1,52,-2v18,-1,35,-3,52,-6r-127,-457v-18,-4,-36,-6,-53,-7v-17,-1,-32,-1,-47,-1v-17,0,-33,0,-49,1v-15,1,-31,3,-48,7","w":927},"\u201e":{"d":"102,-231r121,456v17,3,34,5,51,8v17,2,33,3,48,3v17,0,34,-1,52,-4v18,-2,35,-4,52,-7r-127,-456v-18,-3,-36,-5,-53,-6v-17,-1,-32,-1,-47,-1v-17,0,-33,1,-49,2v-15,1,-31,2,-48,5xm501,-231r121,456v17,3,34,5,51,8v17,2,33,3,48,3v17,0,34,-1,52,-4v18,-2,35,-4,52,-7r-127,-456v-18,-3,-36,-5,-53,-6v-17,-1,-32,-1,-47,-1v-17,0,-33,1,-49,2v-15,1,-31,2,-48,5","w":927},"\u2022":{"d":"174,-662v-27,-64,-27,-144,0,-208v40,-91,119,-160,244,-160v124,0,202,70,242,160v28,63,27,144,0,208v-40,90,-118,160,-242,160v-124,0,-205,-69,-244,-160","w":833},"\u2026":{"d":"627,113v0,19,1,39,3,59v2,19,4,38,7,57v19,3,38,5,57,7v18,1,37,2,56,2v19,0,39,-1,58,-3v19,-1,37,-3,56,-6v3,-19,5,-39,8,-58v2,-19,3,-37,3,-56v0,-19,-1,-39,-3,-58v-2,-19,-5,-38,-8,-57v-19,-3,-38,-5,-57,-6v-18,-1,-36,-2,-55,-2v-19,0,-39,1,-58,2v-19,1,-38,3,-57,6v-3,19,-5,38,-7,57v-2,18,-3,37,-3,56xm1131,113v0,19,1,39,3,59v2,19,4,38,7,57v19,3,38,5,57,7v18,1,37,2,56,2v19,0,39,-1,58,-3v19,-1,37,-3,56,-6v3,-19,5,-39,8,-58v2,-19,3,-37,3,-56v0,-19,-1,-39,-3,-58v-2,-19,-5,-38,-8,-57v-19,-3,-38,-5,-57,-6v-18,-1,-36,-2,-55,-2v-19,0,-39,1,-58,2v-19,1,-38,3,-57,6v-3,19,-5,38,-7,57v-2,18,-3,37,-3,56xm123,113v0,19,1,39,3,59v2,19,4,38,7,57v19,3,38,5,57,7v18,1,37,2,56,2v19,0,39,-1,58,-3v19,-1,37,-3,56,-6v3,-19,5,-39,8,-58v2,-19,3,-37,3,-56v0,-19,-1,-39,-3,-58v-2,-19,-5,-38,-8,-57v-19,-3,-38,-5,-57,-6v-18,-1,-36,-2,-55,-2v-19,0,-39,1,-58,2v-19,1,-38,3,-57,6v-3,19,-5,38,-7,57v-2,18,-3,37,-3,56","w":1501},"\u2039":{"d":"657,-92v-68,10,-151,11,-217,0r-340,-455r340,-452v66,-12,150,-12,217,0r-333,450","w":747},"\u203a":{"d":"88,-999v67,-10,151,-14,217,0r342,454r-342,453v-66,14,-149,12,-217,0r336,-451","w":747},"\u20ac":{"d":"829,25v-365,1,-556,-195,-614,-508r-166,0v-14,-42,-13,-98,0,-142r150,0v-4,-59,-3,-128,0,-190r-150,0v-14,-42,-13,-98,0,-141r170,0v31,-161,97,-288,197,-380v100,-92,237,-137,409,-137v144,0,251,22,351,56v-6,69,-27,115,-50,172v-85,-32,-174,-45,-284,-45v-239,0,-351,129,-398,334r523,0v11,40,10,101,0,141r-541,0r-3,51r-1,97v0,15,1,29,2,42r543,0v12,40,10,101,0,142r-525,0v49,211,168,321,414,323v117,1,205,-20,287,-55v27,53,46,110,57,170v-108,47,-223,69,-371,70"},"\u2122":{"d":"442,-629v-49,10,-109,11,-157,0r0,-669r-232,0v-8,-53,-8,-95,0,-150r619,0v10,46,11,104,0,150r-230,0r0,669xm1589,-629v-51,9,-107,13,-157,0r-31,-522r-176,367v-41,9,-68,7,-117,0r-162,-361r-26,516v-53,11,-102,10,-156,0r41,-819v17,-1,32,-3,45,-4v43,-5,85,1,127,4r203,449r200,-449v15,-1,29,-3,42,-4v42,-5,87,0,126,4","w":1691}}});
